
\data\
ngram 1=290
ngram 2=523
ngram 3=7

\1-grams:
-1.678215	"	0.01276114
-2.456366	'	-0.05183168
-2.456366	'll	-0.05106775
-2.757396	'm	-0.05259427
-2.058426	's	-0.04876786
-2.757396	've	-0.05259427
-2.757396	(	-0.05335553
-2.757396	)	-0.05335553
-1.678215	,	-0.02092079
-2.757396	14	-0.05335553
-2.757396	2-1.	-0.03311592
-2.757396	25	-0.05335553
-2.757396	:	-0.04568228
-1.326032	</s>
-99	<s>	-0.2205639
-1.643453	a	-0.03618827
-2.757396	achievement.	-0.03311592
-2.757396	achievements	-0.04490745
-2.280275	after	-0.02830819
-2.757396	against	-0.04876787
-1.581305	and	-0.02485713
-2.757396	anyone.	-0.03311592
-1.912298	are	-0.0311958
-2.757396	arteta	-0.04490745
-2.757396	arteta.	-0.03311592
-2.155336	as	-0.03944455
-2.757396	aston	-0.05335553
-2.456366	at	-0.04799852
-2.757396	at.	-0.03311592
-2.757396	attempt	-0.04179421
-2.757396	ayegbeni	-0.05259427
-2.280275	back	-0.03944455
-2.757396	be	-0.05183169
-2.757396	beating	-0.05335553
-2.757396	because	-0.05183169
-2.456366	been	-0.04876786
-2.757396	before	-0.05335553
-2.757396	better	-0.05335553
-2.757396	big	-0.05335553
-2.757396	big-game	-0.05335553
-2.757396	bit	-0.05259427
-2.757396	blues	-0.05335553
-2.757396	boost	-0.04722781
-2.757396	boss	-0.05030248
-2.155336	but	-0.02588421
-2.757396	chance.	-0.03311592
-1.912298	chelsea	-0.03787103
-2.757396	chelsea.	-0.03311592
-2.757396	claiming	-0.03391206
-2.456366	come	-0.05030248
-2.757396	coming	-0.05335553
-2.757396	concedes	-0.04876787
-2.757396	could	-0.05259427
-1.979245	cup	-0.8269191
-2.757396	cup.	-0.03311592
-2.757396	cups.	-0.03311592
-2.757396	cut	-0.04413123
-2.757396	dampen	-0.04722781
-2.757396	david	-0.04722781
-2.757396	deep	-0.05335553
-2.757396	defeat	-0.05335553
-2.757396	defender	-0.05335553
-2.757396	deprieved	-0.05030248
-2.757396	deserved	-0.05335553
-2.757396	desire	-0.04179421
-2.757396	despite	-0.03391206
-2.757396	develop	-0.05259427
-2.757396	did	-0.05259427
-2.757396	didier	-0.05183169
-2.757396	dignified	-0.05335553
-2.757396	distance	-0.04722781
-2.757396	done	-0.05106775
-2.757396	down	-0.03391206
-2.757396	drew	-0.04257461
-2.280275	drogba	-0.04179421
-2.757396	drove	-0.05335553
-2.757396	emphasise	-0.04876787
-2.757396	england	-0.04490745
-2.757396	equalised	-0.05335553
-2.757396	equivalent	-0.05106775
-2.757396	establish	-0.05030248
-2.757396	even	-0.04876787
-2.757396	ever	-0.05183169
-2.058426	everton	-0.02750169
-2.280275	fa	-0.5974804
-2.757396	fastest	-0.05335553
-2.757396	feeling	-0.03391206
-2.456366	few	-0.05183168
-2.757396	fifth	-0.04257461
-2.757396	fighting	-0.04799852
-2.757396	figure	-0.05183169
-2.757396	figures	-0.04799852
-1.979245	final	-0.0410124
-2.757396	final.	-0.03311592
-2.757396	finish	-0.05335553
-2.456366	first	-0.05259427
-2.757396	football	-0.05335553
-1.854306	for	-0.2326055
-2.757396	forward	-0.05335553
-2.757396	four.	-0.03311592
-2.757396	frank	-0.05183169
-2.456366	from	-0.05106775
-2.456366	game	-0.04179421
-2.757396	gave	-0.05030248
-2.757396	get	-0.04179421
-2.757396	given	-0.05183169
-2.757396	goal	-0.05030248
-2.757396	gone	-0.05259427
-2.757396	goodison	-0.05335553
-2.456366	got	-0.02099529
-2.456366	great	-0.05259427
-2.757396	guus	-0.05335553
-2.757396	had	-0.05335553
-2.456366	half	-0.04645573
-2.757396	hard	-0.04179421
-2.058426	have	-0.05209428
-2.280275	he	-0.05183169
-2.757396	heart	-0.05259427
-2.757396	heartache	-0.03311592
-2.757396	here	-0.04257461
-2.757396	hiddink	-0.05030248
-2.280275	his	-0.05030248
-2.757396	home	-0.03391206
-2.757396	hopefully	-0.05259427
-2.456366	how	-0.05183168
-2.280275	i	-0.05183169
-2.757396	if	-0.04876787
-2.058426	in	-0.02750169
-2.757396	injuries	-0.04179421
-2.757396	insisted	-0.04876787
-2.757396	insists	-0.05030248
-2.456366	into	-0.0307187
-2.757396	is	-0.03391206
-2.280275	it	-0.04722782
-2.456366	jagielka	-0.04413122
-2.757396	john	-0.05335553
-2.280275	just	-0.04257462
-2.757396	keen	-0.04876787
-2.757396	key	-0.05335553
-2.757396	kick-off	-0.04490745
-2.757396	knew	-0.05259427
-2.757396	know	-0.05183169
-2.757396	knows	-0.05183169
-2.757396	knows.	-0.04490745
-2.280275	lampard	-0.04478468
-2.757396	last	-0.05259427
-2.757396	lead	-0.05183169
-2.456366	league	-0.04568228
-2.757396	left	-0.05183169
-2.456366	level	-0.03391206
-2.757396	like	-0.05183169
-2.757396	live	-0.05183169
-2.757396	liverpool	-0.04257461
-2.757396	look	-0.05259427
-2.757396	lost	-0.04179421
-2.757396	louis	-0.05259427
-2.757396	major	-0.05335553
-2.757396	make	-0.03391206
-2.757396	manchester	-0.05335553
-2.757396	many	-0.05335553
-2.757396	match	-0.05106775
-2.757396	methodically	-0.05335553
-2.757396	midfielder	-0.05335553
-2.757396	mikel	-0.05335553
-2.757396	minute	-0.05335553
-2.757396	missed	-0.05335553
-2.456366	more	-0.05183168
-2.757396	motivation	-0.04799852
-1.803154	moyes	-0.04767363
-2.757396	must	-0.05335553
-2.456366	n't	-0.05259427
-2.757396	nearly-men	-0.04179421
-2.757396	need	-0.04413123
-2.757396	needed	-0.04179421
-2.155336	next	-0.05030248
-2.757396	nigeria	-0.05335553
-2.757396	not	-0.05335553
-2.757396	numbing	-0.05335553
-1.803154	of	-0.01969652
-2.456366	on	-0.03311592
-2.757396	on.	-0.03311592
-2.757396	one	-0.05335553
-2.757396	only	-0.05335553
-2.757396	opportunity	-0.05335553
-2.757396	or	-0.05335553
-2.456366	out	-0.05172128
-2.456366	outstanding.	-0.02344663
-2.456366	pain	-0.04568228
-2.757396	park	-0.04799852
-2.757396	people	-0.05183169
-2.757396	phil	-0.05259427
-2.757396	pienaar	-0.05030248
-2.757396	place	-0.05030248
-2.757396	played	-0.04876787
-2.155336	players	-0.03231832
-2.757396	players.	-0.03311592
-2.757396	premier	-0.05259427
-2.757396	prizes.	-0.03311592
-2.757396	process.	-0.03311592
-2.757396	quality	-0.05335553
-2.757396	reach	-0.03391206
-2.456366	really	-0.05259427
-2.757396	recognised	-0.04799852
-2.757396	record	-0.04799852
-2.757396	record-breaking	-0.05259427
-2.757396	rightly	-0.05335553
-2.456366	saha	-0.04953585
-2.757396	said	-0.05335553
-2.456366	said.	-0.03760938
-2.757396	saturday.	-0.03311592
-2.280275	season	-0.04478468
-2.757396	season.	-0.03311592
-2.456366	second	-0.05708774
-2.757396	seconds	-0.05183169
-2.757396	semi-final	-0.04257461
-2.757396	sense	-0.04722781
-2.757396	shake	-0.04876787
-2.757396	shock	-0.05335553
-2.757396	short	-0.04722781
-2.456366	side	-0.05183168
-2.757396	significant	-0.04413123
-2.757396	silverware	-0.05183169
-2.757396	so	-0.05335553
-2.757396	spanish	-0.05335553
-2.757396	squad	-0.04179421
-2.757396	step	-0.05030248
-2.757396	steven	-0.05335553
-2.757396	still	-0.05335553
-2.757396	stride.	-0.03311592
-2.757396	strike	-0.05259427
-2.757396	stronger	-0.05335553
-2.757396	success	-0.05106775
-2.757396	success.	-0.03311592
-2.456366	take	-0.04335361
-2.757396	takes	-0.05259427
-2.456366	team	-0.04953585
-2.757396	teams	-0.05335553
-2.757396	terry	-0.04876787
-2.757396	than	-0.05335553
-1.912298	that	-0.02716332
-1.342423	the	-0.0236639
-2.280275	their	-0.04953586
-2.456366	then	-0.05030248
-2.280275	they	-0.04789791
-2.757396	things	-0.05030248
-2.155336	this	-0.04869666
-2.456366	those	-0.04799852
-2.757396	thought	-0.05335553
-2.757396	threat	-0.04179421
-2.757396	three	-0.05335553
-2.757396	through	-0.05335553
-2.757396	time	-0.05030248
-1.553276	to	-0.005699474
-2.757396	totally	-0.05335553
-2.757396	touching	-0.05335553
-2.757396	transistion	-0.05259427
-2.757396	trying	-0.04179421
-2.757396	twice	-0.05106775
-2.757396	two	-0.05183169
-2.757396	unable	-0.04179421
-2.757396	united	-0.04490745
-2.280275	us	-0.02830819
-2.757396	use	-0.03391206
-2.757396	victory	-0.05259427
-2.757396	villa	-0.05259427
-2.757396	vows	-0.04722781
-2.058426	was	-0.02830818
-2.456366	way	-0.04257461
-1.716003	we	-0.03792038
-2.456366	well	-0.04257461
-2.757396	wembley	-0.05259427
-2.757396	went	-0.05030248
-2.456366	were	-0.05259427
-2.757396	when	-0.04568228
-2.757396	while	-0.04722781
-2.280275	who	-0.04568228
-2.456366	will	-0.05183168
-2.280275	win	-0.04257462
-2.757396	winner.	-0.03311592
-2.757396	winners	-0.04490745
-2.757396	winners.	-0.03311592
-2.280275	with	-0.05106776
-2.757396	within	-0.05335553
-2.757396	without	-0.05183169
-2.757396	worked	-0.05183169
-2.456366	would	-0.05479594
-2.456366	yakubu	-0.04706808
-2.456366	year	-0.04179421
-2.757396	years	-0.05335553
-2.757396	you	-0.05335553

\2-grams:
-1.676947	" </s>
-2.010421	" but
-1.676947	" i
-2.010421	" if
-1.676947	" moyes	-0.1101157
-2.010421	" players
-2.010421	" the
-1.676947	" we
-1.23227	' desire
-1.23227	' side
-1.23227	'll be
-1.23227	'll win
-0.9312398	'm really
-1.63021	's achievements
-1.63021	's big
-1.63021	's really
-1.63021	's record-breaking
-1.63021	's team
-0.9312398	've got
-0.9312398	( john
-0.9312398	) terry
-1.676947	, "	-0.1132383
-2.010421	, but
-2.010421	, claiming
-2.010421	, he
-2.010421	, lampard
-2.010421	, liverpool
-2.010421	, nigeria
-2.010421	, then
-2.010421	, we
-2.010421	, with
-2.010421	, yakubu
-0.9312398	14 years
-0.9312398	2-1. </s>
-0.9312398	25 seconds
-0.9312398	: we
-0.5282738	<s> "	-0.03826262
-2.362604	<s> and
-2.029129	<s> but
-2.362604	<s> david
-2.362604	<s> football
-2.362604	<s> guus
-2.362604	<s> he
-2.362604	<s> i
-2.362604	<s> injuries
-2.029129	<s> moyes
-2.362604	<s> saha
-2.362604	<s> that
-2.362604	<s> they
-0.9542425	<s> we
-2.362604	<s> well
-2.362604	<s> while
-2.045183	a better
-2.045183	a cup
-2.045183	a cup.
-2.045183	a dignified
-1.711709	a few
-2.045183	a final
-2.045183	a final.
-2.045183	a great
-2.045183	a major
-2.045183	a missed
-2.045183	a shock
-2.045183	a stronger
-0.9312398	achievement. </s>
-0.9312398	achievements ,
-1.408361	after cup
-1.408361	after kick-off
-1.408361	after the
-0.9312398	against chelsea
-2.107331	and (
-2.107331	and arteta.
-2.107331	and aston
-2.107331	and defender
-2.107331	and drew
-2.107331	and drogba
-2.107331	and equalised
-2.107331	and lost
-2.107331	and moyes
-2.107331	and not
-2.107331	and reach
-2.107331	and then
-2.107331	and this
-1.773857	and we
-0.9312398	anyone. </s>
-1.776338	are at.
-1.776338	are coming
-1.776338	are recognised
-1.776338	are still
-1.442864	are the
-1.776338	are trying
-0.9312398	arteta ,
-0.9312398	arteta. </s>
-1.5333	as a
-1.5333	as he
-1.5333	as motivation
-1.5333	as those
-0.9312398	aston villa
-1.23227	at that
-1.23227	at wembley
-0.9312398	at. </s>
-0.9312398	attempt to
-0.9312398	ayegbeni yakubu
-1.408361	back into
-1.408361	back to
-1.408361	back vows
-0.9312398	be back
-0.9312398	beating manchester
-0.9312398	because they
-1.23227	been in
-1.23227	been outstanding.
-0.9312398	before frank
-0.9312398	better chance.
-0.9312398	big four.
-0.9312398	big-game winners.
-0.9312398	bit will
-0.9312398	blues boss
-0.9312398	boost of
-0.9312398	boss was
-1.5333	but deep
-1.5333	but even
-1.5333	but for
-1.5333	but the
-0.9312398	chance. </s>
-1.776338	chelsea as
-1.776338	chelsea had
-1.776338	chelsea out
-1.776338	chelsea players
-1.776338	chelsea that
-1.776338	chelsea twice
-1.776338	chelsea were
-0.9312398	chelsea. </s>
-0.9312398	claiming the
-1.23227	come here
-1.23227	come next
-0.9312398	coming on.
-0.9312398	concedes that
-0.9312398	could n't
-0.07918125	cup final
-1.709391	cup semi-final
-0.9312398	cup. </s>
-0.9312398	cups. </s>
-0.9312398	cut a
-0.9312398	dampen moyes
-0.9312398	david moyes
-0.9312398	deep down
-0.9312398	defeat against
-0.9312398	defender phil
-0.9312398	deprieved everton
-0.9312398	deserved winners
-0.9312398	desire to
-0.9312398	despite the
-0.9312398	develop those
-0.9312398	did n't
-0.9312398	didier drogba
-0.9312398	dignified figure
-0.9312398	distance of
-0.9312398	done this
-0.9312398	down the
-0.9312398	drew and
-1.408361	drogba ,
-1.408361	drogba before
-1.408361	drogba it
-0.9312398	drove home
-0.9312398	emphasise that
-0.9312398	england ,
-0.9312398	equalised through
-0.9312398	equivalent players
-0.9312398	establish everton
-0.9312398	even that
-0.9312398	ever fa
-1.63021	everton a
-1.63021	everton are
-1.63021	everton as
-1.63021	everton must
-1.63021	everton of
-0.1249387	fa cup	0.1760913
-0.9312398	fastest ever
-0.9312398	feeling the
-1.23227	few more
-1.23227	few prizes.
-0.9312398	fifth and
-0.9312398	fighting for
-0.9312398	figure after
-0.9312398	figures for
-1.709391	final ,
-1.709391	final beating
-1.709391	final defeat
-1.709391	final goal
-1.709391	final heartache
-1.709391	final victory
-0.9312398	final. </s>
-0.9312398	finish fifth
-1.23227	first minute
-1.23227	first time
-0.9312398	football :
-1.83433	for how
-1.83433	for just
-1.83433	for success
-0.4259687	for the
-1.500856	for us
-0.9312398	forward ayegbeni
-0.9312398	four. </s>
-0.9312398	frank lampard
-1.23227	from his
-1.23227	from nearly-men
-1.23227	game and
-1.23227	game without
-0.9312398	gave everton
-0.9312398	get to
-0.9312398	given us
-0.9312398	goal in
-0.9312398	gone into
-0.9312398	goodison park
-1.23227	got the
-1.23227	got to
-1.23227	great achievement.
-1.23227	great heart
-0.9312398	guus hiddink
-0.9312398	had gone
-1.23227	half of
-1.23227	half winner.
-0.9312398	hard to
-1.296736	have been
-1.63021	have done
-1.63021	have given
-1.63021	have one
-1.408361	he insisted
-1.408361	he knew
-1.408361	he knows
-0.9312398	heart from
-0.9312398	heartache </s>
-0.9312398	here and
-0.9312398	hiddink 's
-1.408361	his attempt
-1.408361	his side
-1.408361	his team
-0.9312398	home the
-0.9312398	hopefully come
-1.23227	how significant
-1.23227	how well
-1.408361	i 'm
-1.408361	i said
-1.408361	i thought
-0.9312398	if chelsea
-1.63021	in 14
-1.63021	in england
-1.63021	in his
-1.63021	in the
-1.63021	in with
-0.9312398	injuries to
-0.9312398	insisted chelsea
-0.9312398	insists everton
-1.23227	into the
-1.23227	into this
-0.9312398	is the
-1.408361	it 's
-1.408361	it will
-1.408361	it would
-1.23227	jagielka ,
-1.23227	jagielka deprieved
-0.9312398	john )
-1.408361	just 25
-1.408361	just a
-1.408361	just need
-0.9312398	keen that
-0.9312398	key figures
-0.9312398	kick-off ,
-0.9312398	knew how
-0.9312398	know it
-0.9312398	knows it
-0.9312398	knows. "
-1.074887	lampard and
-1.408361	lampard drove
-0.9312398	last year
-0.9312398	lead just
-1.23227	league 's
-1.23227	league cup
-0.9312398	left his
-1.23227	level and
-1.23227	level we
-0.9312398	like drogba
-0.9312398	live with
-0.9312398	liverpool and
-0.9312398	look out
-0.9312398	lost to
-0.9312398	louis saha
-0.9312398	major threat
-0.9312398	make the
-0.9312398	manchester united
-0.9312398	many teams
-0.9312398	match as
-0.9312398	methodically worked
-0.9312398	midfielder mikel
-0.9312398	mikel arteta
-0.9312398	minute strike
-0.9312398	missed opportunity
-1.23227	more at
-1.23227	more than
-0.9312398	motivation for
-1.552008	moyes '
-1.885482	moyes after
-1.885482	moyes concedes
-1.885482	moyes cut
-1.885482	moyes insists
-1.885482	moyes rightly
-1.552008	moyes said.	-0.06386458
-0.9312398	must use
-1.23227	n't shake
-1.23227	n't totally
-0.9312398	nearly-men to
-0.9312398	need a
-0.9312398	needed to
-1.5333	next bit
-1.5333	next season.
-1.5333	next step
-1.5333	next year
-0.9312398	nigeria forward
-0.9312398	not look
-0.9312398	numbing sense
-1.885482	of a
-1.885482	of louis
-1.885482	of place
-1.885482	of success.
-1.552008	of the
-1.552008	of their
-1.885482	of three
-1.23227	on saturday.
-1.23227	on the
-0.9312398	on. </s>
-0.9312398	one or
-0.9312398	only 2-1.
-0.9312398	opportunity could
-0.9312398	or two
-0.8987956	out of
-1.23227	outstanding. "
-1.23227	outstanding. </s>
-1.23227	pain more
-1.23227	pain of
-0.9312398	park for
-0.9312398	people who
-0.9312398	phil jagielka
-0.9312398	pienaar was
-0.9312398	place was
-0.9312398	played chelsea
-1.5333	players ,
-1.5333	players are
-1.5333	players for
-1.5333	players like
-0.9312398	players. </s>
-0.9312398	premier league
-0.9312398	prizes. </s>
-0.9312398	process. </s>
-0.9312398	quality needed
-0.9312398	reach the
-1.23227	really hard
-1.23227	really keen
-0.9312398	recognised for
-0.9312398	record for
-0.9312398	record-breaking first
-0.9312398	rightly takes
-1.23227	saha 's
-1.23227	saha gave
-0.9312398	said last
-0.8987956	said. </s>
-0.9312398	saturday. </s>
-1.074887	season and
-1.408361	season because
-0.9312398	season. </s>
-0.8987956	second half
-0.9312398	seconds after
-0.9312398	semi-final and
-0.9312398	sense of
-0.9312398	shake chelsea
-0.9312398	shock lead
-0.9312398	short of
-1.23227	side short
-1.23227	side were
-0.9312398	significant a
-0.9312398	silverware back
-0.9312398	so many
-0.9312398	spanish midfielder
-0.9312398	squad to
-0.9312398	step was
-0.9312398	steven pienaar
-0.9312398	still within
-0.9312398	stride. </s>
-0.9312398	strike at
-0.9312398	stronger squad
-0.9312398	success next
-0.9312398	success. </s>
-1.23227	take a
-1.23227	take silverware
-0.9312398	takes great
-1.23227	team 's
-1.23227	team methodically
-0.9312398	teams fighting
-0.9312398	terry are
-0.9312398	than anyone.
-1.776338	that did
-1.776338	that everton
-1.776338	that is
-1.776338	that left
-1.776338	that level
-1.442864	that the
-2.346213	the blues
-2.346213	the boost
-2.346213	the equivalent
-2.346213	the fa
-2.346213	the fastest
-2.346213	the first
-2.346213	the game
-2.346213	the league
-2.346213	the level
-2.346213	the match
-2.012739	the next
-2.346213	the numbing
-2.012739	the pain
-2.346213	the people
-2.346213	the players
-2.346213	the premier
-2.346213	the process.
-2.346213	the quality
-2.346213	the record
-2.346213	the season
-2.012739	the second	-0.06386458
-2.346213	the transistion
-2.346213	the way
-1.408361	their fa
-1.408361	their stride.
-1.408361	their way
-1.23227	then come
-1.23227	then who
-1.408361	they are
-1.074887	they have
-0.9312398	things in
-1.5333	this game
-1.199826	this season
-1.5333	this was
-1.23227	those chelsea
-1.23227	those players.
-0.9312398	thought steven
-0.9312398	threat to
-0.9312398	three key
-0.9312398	through didier
-0.9312398	time in
-1.801886	to a
-2.13536	to big-game
-2.13536	to chelsea
-2.13536	to develop
-2.13536	to emphasise
-2.13536	to establish
-2.13536	to finish
-2.13536	to get
-2.13536	to goodison
-2.13536	to live
-2.13536	to make
-2.13536	to spanish
-2.13536	to take
-2.13536	to the
-2.13536	to win
-0.9312398	totally dampen
-0.9312398	touching distance
-0.9312398	transistion from
-0.9312398	trying to
-0.9312398	twice this
-0.9312398	two who
-0.9312398	unable to
-0.9312398	united ,
-1.408361	us a
-1.408361	us as
-1.408361	us to
-0.9312398	use the
-0.9312398	victory would
-0.9312398	villa on
-0.9312398	vows moyes
-1.63021	was a
-1.63021	was feeling
-1.63021	was only
-1.63021	was outstanding.
-1.63021	was to
-1.23227	way ,
-1.23227	way back
-1.639158	we 'll
-1.972633	we 've
-1.639158	we are
-1.972633	we got
-1.972633	we have
-1.972633	we just
-1.972633	we know
-1.972633	we played
-1.972633	we went
-1.23227	well ,
-1.23227	well they
-0.9312398	wembley on
-0.9312398	went in
-1.23227	were deserved
-1.23227	were unable
-0.9312398	when we
-0.9312398	while moyes
-1.408361	who are
-1.408361	who knows.
-1.408361	who win
-1.23227	will hopefully
-1.23227	will take
-1.408361	win a
-1.408361	win things
-1.408361	win you
-0.9312398	winner. </s>
-0.9312398	winners ,
-0.9312398	winners. </s>
-1.408361	with chelsea.
-1.408361	with jagielka
-1.408361	with so
-0.9312398	within touching
-0.9312398	without lampard
-0.9312398	worked their
-0.8987956	would have
-0.8987956	yakubu and
-1.23227	year and
-1.23227	year when
-0.9312398	years despite
-0.9312398	you cups.

\3-grams:
-0.6095408	, " moyes
-1.211601	<s> " i
-1.211601	<s> " we
-0.1249387	fa cup final
-0.6095408	" moyes said.
-0.6095408	moyes said. </s>
-0.6095408	the second half

\end\
