
\data\
ngram 1=328
ngram 2=674
ngram 3=18

\1-grams:
-1.521247	"	-0.05469452
-2.901458	'll	-0.0618927
-2.901458	're	-0.05970205
-1.947216	's	-0.05639524
-2.600428	've	-0.06079875
-2.901458	(	-0.05138729
-2.901458	)	-0.06134607
-1.646186	,	-0.03435781
-2.901458	1-0	-0.06243864
-2.901458	2007.	-0.04291023
-2.600428	30	-0.06025074
-2.901458	33rd	-0.06243864
-2.901458	36	-0.06243864
-2.600428	:	-0.04801629
-1.345156	</s>
-99	<s>	-0.3309642
-1.559036	a	-0.0636303
-2.901458	about	-0.05528734
-2.901458	absolutely	-0.06079876
-2.901458	achieved	-0.05417661
-2.901458	actually	-0.06243864
-2.600428	add	-0.01704472
-2.901458	added	-0.0618927
-2.424337	after	-0.04970507
-2.901458	against	-0.06243864
-2.600428	all	-0.0278129
-2.901458	ally	-0.05915266
-2.901458	also	-0.06243864
-2.901458	always	-0.0618927
-2.901458	am	-0.06243864
-2.901458	an	-0.06243864
-1.697338	and	-0.1088632
-2.424337	any	-0.2276435
-2.901458	anyone	-0.0618927
-2.901458	anywhere	-0.06243864
-2.600428	are	-0.02899305
-2.123307	as	-0.08812858
-2.901458	assistant	-0.06134607
-2.424337	at	-0.1985848
-2.901458	away	-0.06134607
-2.901458	back	-0.05138729
-2.901458	back.	-0.04970507
-2.901458	battling	-0.0618927
-2.424337	be	-0.0513873
-2.901458	beating	-0.05306303
-2.901458	because	-0.05860258
-2.901458	before	-0.0618927
-2.901458	begun	-0.05970205
-2.901458	behind	-0.06243864
-2.600428	being	-0.01885806
-2.901458	bench	-0.06134607
-2.901458	bench.	-0.04970507
-2.901458	best	-0.06025076
-2.901458	better	-0.05417661
-2.901458	bit	-0.05362017
-2.901458	boys	-0.06243864
-2.299398	break	-0.04745192
-2.901458	brings	-0.05138729
-2.600428	but	-0.05138729
-2.901458	buy	-0.06134607
-2.901458	by	-0.0618927
-2.600428	came	-0.06189269
-2.202488	can	-0.05970206
-2.600428	certainly	-0.05362017
-2.901458	champions	-0.06079876
-2.901458	championship	-0.06025076
-2.600428	charge	-0.05306302
-2.600428	close	-0.03889691
-2.901458	close.	-0.04291023
-2.424337	club	-0.04745192
-2.901458	clubs	-0.06243864
-2.600428	collect	-0.0278129
-2.901458	collected	-0.05082727
-2.901458	coming	-0.0618927
-2.901458	context	-0.05362017
-2.901458	contrary.	-0.04291023
-2.901458	country	-0.05528734
-2.901458	credit	-0.06243864
-1.998368	cup	-0.09731977
-2.901458	dani	-0.06243864
-2.424337	day	-0.04348055
-2.901458	day.	-0.04291023
-2.901458	defeat	-0.06243864
-2.600428	deserve	-0.06025074
-2.901458	deserved	-0.0618927
-2.600428	deserves	-0.0278129
-2.901458	despite	-0.06243864
-2.424337	did	-0.3749693
-2.600428	disappointment	-0.05082727
-2.901458	do	-0.06025076
-2.600428	domestic	-0.06079875
-2.424337	double	-0.03774342
-2.901458	double.	-0.04291023
-2.901458	easy	-0.06025076
-2.901458	effort	-0.02958193
-2.901458	elimination	-0.06134607
-2.901458	ended	-0.0618927
-2.901458	especially	-0.05970205
-2.901458	europe	-0.06134607
-2.901458	every	-0.06134607
-2.901458	eyes	-0.05306303
-2.600428	fact	-0.05860257
-2.600428	falkirk	-0.06025074
-2.901458	fans	-0.05417661
-2.901458	fbk	-0.0618927
-2.901458	fellow	-0.06243864
-2.901458	felt	-0.06025076
-2.901458	few	-0.06243864
-2.299398	final	-0.04176736
-2.901458	final.	-0.04291023
-2.600428	football	-0.06134607
-2.424337	for	-0.3432052
-2.424337	forward	-0.3650105
-2.901458	fourth	-0.06134607
-2.424337	from	-0.06079876
-2.901458	front	-0.05417661
-2.901458	game	-0.05417661
-2.600428	gers	-0.05250516
-2.600428	get	-0.05915266
-2.901458	getting	-0.06243864
-2.600428	giants	-0.05138729
-2.424337	glasgow	-0.2292938
-2.600428	goal	-0.05473232
-2.901458	goals	-0.05138729
-2.901458	going	-0.06243864
-2.901458	going.	-0.04291023
-2.901458	golf	-0.06243864
-2.901458	good.	-0.04291023
-2.424337	got	-0.01522379
-2.901458	great	-0.06243864
-2.901458	guy.	-0.04291023
-2.600428	had	-0.06134607
-2.901458	half	-0.06243864
-2.901458	half-time.	-0.04291023
-2.901458	hands	-0.05362017
-2.600428	happens	-0.3411899
-2.901458	happy	-0.05970205
-2.901458	hard	-0.06243864
-2.424337	have	-0.03832056
-1.998368	he	-0.09502192
-2.901458	heaped	-0.06243864
-2.901458	he‘s	-0.06025076
-2.901458	him	-0.05970205
-2.600428	himself	-0.04801629
-2.424337	his	-0.06025076
-2.901458	history.	-0.04291023
-2.600428	hit	-0.04632093
-2.901458	holiday	-0.05306303
-2.901458	hopefully	-0.05528734
-2.600428	hundreds	-0.04461892
-1.75533	i	-0.07579733
-2.424337	ibrox	-0.374422
-2.901458	idea.	-0.04291023
-2.600428	if	-0.05860257
-1.697338	in	-0.07111739
-2.901458	incredible	-0.06134607
-2.901458	into	-0.05082727
-2.424337	is	-0.0224622
-1.75533	it	-0.09786646
-2.424337	it.	-0.3565335
-2.901458	january	-0.06243864
-2.901458	july	-0.0618927
-2.202488	just	-0.1511484
-2.600428	kaunas	-0.05915266
-2.901458	keeper	-0.06243864
-2.424337	kind	-0.3672434
-2.901458	knew	-0.05528734
-2.299398	last	-0.0580518
-2.299398	league	-0.04970507
-2.901458	legendary	-0.0618927
-2.901458	lifted	-0.02958193
-2.901458	lights	-0.0618927
-2.901458	like	-0.06079876
-2.901458	liked.	-0.04970507
-2.901458	lithuanian	-0.06243864
-2.901458	long	-0.06025076
-2.600428	look	-0.3395141
-2.901458	looked	-0.0618927
-2.299398	looking	-0.2713341
-2.901458	lost	-0.02958193
-2.901458	luck	-0.05915266
-2.424337	manager	-0.05250518
-2.901458	many	-0.06243864
-2.901458	maybe	-0.0618927
-2.05636	mccoist	-0.1127858
-2.901458	means	-0.06134607
-2.901458	mello	-0.06134607
-2.901458	minnows.	-0.04291023
-2.424337	more	-0.05970206
-2.901458	much	-0.05362017
-2.901458	my	-0.06079876
-2.424337	n't	-0.05970206
-2.600428	nacho	-0.06025074
-2.901458	narrow	-0.06243864
-2.901458	need	-0.05082727
-2.901458	next	-0.06025076
-2.901458	no	-0.06243864
-2.901458	not	-0.06243864
-2.600428	novo	-0.05250516
-2.901458	obviously	-0.06025076
-1.671009	of	-0.338304
-2.600428	off	-0.3177088
-2.123307	on	-0.1563177
-2.901458	one	-0.05362017
-2.901458	onto	-0.05082727
-2.600428	or	-0.05860257
-2.600428	out	-0.05082726
-2.901458	over	-0.05082727
-2.901458	painful	-0.06243864
-2.901458	papac	-0.06243864
-2.901458	park	-0.0618927
-2.901458	past	-0.0618927
-2.901458	people	-0.05805179
-2.901458	person.	-0.04291023
-2.424337	players	-0.0513873
-2.901458	players.	-0.04970507
-2.901458	praise	-0.05970205
-2.901458	praying	-0.05860258
-2.901458	premier	-0.06079876
-2.600428	put	-0.02006276
-2.901458	qualifier	-0.06243864
-2.901458	quality	-0.05362017
-2.901458	quid	-0.0618927
-2.424337	rangers	-0.05639524
-2.901458	rangers.	-0.04291023
-2.901458	rapport	-0.05970205
-2.901458	reached	-0.02958193
-2.901458	real	-0.06243864
-2.901458	really	-0.06243864
-2.901458	rest	-0.05362017
-2.901458	returned	-0.05138729
-2.901458	reward	-0.06134607
-2.901458	room	-0.05306303
-2.901458	rumours.	-0.04291023
-2.424337	said	-0.220419
-2.424337	said.	-0.3565335
-2.901458	sasa	-0.06243864
-2.901458	says	-0.02958193
-2.901458	scored	-0.06243864
-2.202488	scottish	-0.07305957
-2.202488	season	-0.03716552
-2.901458	season.	-0.04291023
-2.901458	seconds	-0.06134607
-2.901458	secure	-0.05082727
-2.901458	secured	-0.05082727
-2.901458	securing	-0.06134607
-2.424337	see	-0.2292938
-2.901458	send	-0.05082727
-2.901458	sensational	-0.0618927
-2.299398	side	-0.05639524
-2.901458	since	-0.05860258
-2.901458	sit	-0.05417661
-2.424337	smith	-0.05915267
-2.600428	so	-0.06134607
-2.901458	some	-0.06243864
-2.901458	spaniard	-0.06243864
-2.901458	speculation	-0.05138729
-2.600428	squad.	-0.3310371
-2.901458	stairs	-0.05528734
-2.901458	still	-0.06134607
-2.901458	strengthen	-0.05306303
-2.600428	strike	-0.06134607
-2.600428	striker	-0.05860257
-2.600428	success	-0.05473232
-2.901458	suffered	-0.05082727
-2.600428	summer	-0.05082727
-2.901458	summer.	-0.04291023
-2.901458	surrounded	-0.06243864
-2.600428	take	-0.05026653
-2.901458	talk	-0.06243864
-2.600428	team	-0.05306302
-2.600428	terms	-0.341747
-2.901458	testament	-0.05138729
-2.202488	that	-0.04518702
-1.130606	the	-0.1510396
-2.901458	them	-0.05138729
-2.202488	they	-0.05750031
-2.901458	thing	-0.05528734
-2.901458	think	-0.02958193
-2.901458	think.	-0.04291023
-2.901458	this	-0.0618927
-2.901458	thought	-0.05306303
-2.901458	throw-in	-0.05138729
-2.901458	time.	-0.04291023
-1.579239	to	-0.02586463
-2.901458	today	-0.06243864
-2.901458	training.	-0.04291023
-2.901458	trophies	-0.05306303
-2.901458	two	-0.06243864
-2.901458	uefa	-0.05860258
-2.600428	up	-0.05915266
-2.901458	up.	-0.04291023
-2.901458	upstairs	-0.06243864
-2.901458	us	-0.06134607
-2.901458	very	-0.06243864
-2.901458	victory	-0.06243864
-2.901458	wait	-0.05417661
-2.901458	walk	-0.06243864
-2.901458	walks	-0.05417661
-2.600428	walter	-0.3494729
-2.901458	want	-0.05138729
-2.901458	wanted	-0.05138729
-2.05636	was	-0.1105238
-2.05636	we	-0.195653
-2.424337	wee	-0.06134608
-2.424337	what	-0.1979951
-2.202488	when	-0.01155884
-2.901458	whether	-0.05528734
-2.901458	which	-0.06243864
-2.600428	while	-0.05026653
-2.600428	who	-0.02899305
-2.901458	why	-0.05528734
-2.424337	will	-0.05915267
-2.600428	win	-0.05970205
-2.901458	winning	-0.06134607
-2.123307	with	-0.1823757
-2.600428	won	-0.02603664
-2.901458	wonder	-0.0618927
-2.901458	wonderful	-0.06243864
-2.901458	works	-0.0618927
-2.901458	worthy	-0.05362017
-2.202488	would	-0.1522507
-2.901458	yard	-0.05417661
-2.901458	yards	-0.0618927
-2.600428	year	-0.05138729
-2.901458	year.	-0.04291023
-2.901458	years	-0.02958193
-2.299398	you	-0.05915267

\2-grams:
-1.543315	" </s>
-2.249877	" anywhere
-2.249877	" but
-2.249877	" certainly
-2.249877	" going
-2.249877	" he
-1.543315	" i
-2.249877	" if
-1.139766	" it
-2.249877	" last
-1.335313	" mccoist	-0.1915197
-2.249877	" nacho
-2.249877	" smith
-2.249877	" they
-2.249877	" we
-0.8696662	'll take
-0.8696662	're on
-1.823909	's certainly
-1.823909	's eyes
-1.823909	's got
-1.823909	's him
-1.823909	's history.
-1.823909	's narrow
-1.823909	's not
-1.823909	's onto
-1.823909	's why
-1.170696	've got
-1.170696	've liked.
-0.8696662	( to
-0.8696662	) is
-1.014827	, "	-0.137898
-2.124939	, a
-2.124939	, and
-2.124939	, despite
-2.124939	, especially
-2.124939	, happy
-2.124939	, he‘s
-2.124939	, himself
-2.124939	, in
-2.124939	, just
-2.124939	, said
-2.124939	, suffered
-2.124939	, the
-2.124939	, whether
-1.210374	, who
-0.8696662	1-0 victory
-0.8696662	2007. </s>
-1.170696	30 last
-1.170696	30 yards
-0.8696662	33rd time.
-0.8696662	36 seconds
-1.170696	: "
-1.170696	: rangers
-0.3521825	<s> "	-0.01100792
-1.315857	<s> and
-2.425969	<s> football
-2.425969	<s> he
-1.511404	<s> i
-1.511404	<s> it
-2.425969	<s> looking
-1.511404	<s> mccoist
-2.425969	<s> rangers
-2.425969	<s> that
-1.719406	<s> the
-2.425969	<s> with
-2.425969	<s> you
-2.212089	a battling
-2.212089	a bit
-1.297525	a break
-2.212089	a champions
-2.212089	a close
-2.212089	a disappointment
-2.212089	a domestic
-2.212089	a few
-2.212089	a football
-2.212089	a goal
-2.212089	a hit
-2.212089	a league
-2.212089	a legendary
-2.212089	a long
-2.212089	a nacho
-2.212089	a painful
-2.212089	a real
-2.212089	a room
-2.212089	a sasa
-2.212089	a sensational
-2.212089	a wonderful
-0.8696662	about it
-0.8696662	absolutely looking
-0.8696662	achieved in
-0.8696662	actually praying
-1.170696	add the
-1.170696	add to
-0.8696662	added :
-1.346787	after a
-1.346787	after coming
-1.346787	after securing
-0.8696662	against fbk
-1.170696	all day
-1.170696	all the
-0.8696662	ally mccoist
-0.8696662	also heaped
-0.8696662	always get
-0.8696662	am absolutely
-0.8696662	an incredible
-2.073786	and after
-2.073786	and cup
-2.073786	and hopefully
-2.073786	and hundreds
-1.159222	and i
-2.073786	and look
-2.073786	and mccoist
-1.159222	and see	-0.06601231
-2.073786	and talk
-0.9636747	and the
-2.073786	and walter
-2.073786	and while
-1.346787	any country
-0.4322231	any cup
-0.8696662	anyone deserves
-0.8696662	anywhere lights
-1.170696	are surrounded
-1.170696	are the
-1.647817	as he
-1.647817	as it
-1.647817	as much
-0.7332531	as the
-1.647817	as we
-0.8696662	assistant manager
-1.346787	at half-time.
-0.4322231	at the
-0.8696662	away from
-0.8696662	back to
-0.8696662	back. "
-0.8696662	battling falkirk
-1.346787	be close.
-1.346787	be in
-1.346787	be looking
-0.8696662	beating ,
-0.8696662	because he
-0.8696662	before had
-0.8696662	begun with
-0.8696662	behind them
-1.170696	being ,
-1.170696	being the
-0.8696662	bench at
-0.8696662	bench. "
-0.8696662	best season
-0.8696662	better in
-0.8696662	bit of
-0.8696662	boys achieved
-1.471726	break ,
-1.471726	break after
-1.471726	break as
-1.471726	break like
-0.8696662	brings to
-1.170696	but in
-1.170696	but they
-0.8696662	buy more
-0.8696662	by hundreds
-1.170696	came back
-1.170696	came back.
-1.568636	can add
-1.568636	can always
-1.568636	can maybe
-1.568636	can sit
-1.568636	can still
-1.170696	certainly in
-1.170696	certainly one
-0.8696662	champions league
-0.8696662	championship they
-1.170696	charge next
-1.170696	charge of
-1.170696	close a
-1.170696	close to
-0.8696662	close. </s>
-1.346787	club 's
-1.346787	club in
-1.346787	club will
-0.8696662	clubs looked
-1.170696	collect more
-1.170696	collect the
-0.8696662	collected a
-0.8696662	coming off
-0.8696662	context of
-0.8696662	contrary. </s>
-0.8696662	country i
-0.8696662	credit going.
-1.772756	cup )
-1.772756	cup as
-1.772756	cup double
-0.8581918	cup final
-1.772756	cup final.
-1.772756	cup for
-1.772756	cup to
-0.8696662	dani mello
-1.346787	day if
-1.346787	day in
-1.346787	day of
-0.8696662	day. </s>
-0.8696662	defeat behind
-1.170696	deserve all
-1.170696	deserve it.
-0.8696662	deserved or
-1.170696	deserves his
-1.170696	deserves the
-0.8696662	despite speculation
-0.236676	did n't
-1.170696	disappointment of
-1.170696	disappointment when
-0.8696662	do when
-1.170696	domestic double
-1.170696	domestic double.
-1.346787	double </s>
-1.346787	double was
-1.346787	double while
-0.8696662	double. </s>
-0.8696662	easy when
-0.8696662	effort the
-0.8696662	elimination from
-0.8696662	ended up
-0.8696662	especially with
-0.8696662	europe at
-0.8696662	every day
-0.8696662	eyes ,
-1.170696	fact is
-1.170696	fact they
-1.170696	falkirk keeper
-1.170696	falkirk side
-0.8696662	fans and
-0.8696662	fbk kaunas
-0.8696662	fellow walks
-0.8696662	felt that
-0.8696662	few quid
-1.471726	final ,
-1.471726	final day
-1.471726	final day.
-1.471726	final in
-0.8696662	final. </s>
-1.170696	football :
-1.170696	football park
-0.236676	for the
-0.236676	forward to
-0.8696662	fourth double
-1.346787	from 30
-1.346787	from europe
-1.346787	from us
-0.8696662	front and
-0.8696662	game and
-1.170696	gers ,
-1.170696	gers secured
-1.170696	get as
-1.170696	get better
-0.8696662	getting away
-1.170696	giants ,
-1.170696	giants manager
-0.4322231	glasgow giants
-1.346787	glasgow you
-1.170696	goal it
-1.170696	goal worthy
-0.8696662	goals to
-0.8696662	going upstairs
-0.8696662	going. </s>
-0.8696662	golf clubs
-0.8696662	good. </s>
-1.346787	got a
-1.346787	got himself
-1.346787	got the
-0.8696662	great goals
-0.8696662	guy. </s>
-1.170696	had put
-1.170696	had reached
-0.8696662	half yard
-0.8696662	half-time. </s>
-0.8696662	hands of
-0.2561319	happens ,
-0.8696662	happy with
-0.8696662	hard every
-1.346787	have a
-1.346787	have no
-1.346787	have to
-1.772756	he 's
-1.772756	he and
-1.772756	he deserves
-1.772756	he got
-1.772756	he was
-1.772756	he works
-0.8581918	he would
-0.8696662	heaped praise
-0.8696662	he‘s just
-0.8696662	him as
-1.170696	himself a
-1.170696	himself that
-1.346787	his fourth
-1.346787	his success
-1.346787	his summer
-0.8696662	history. </s>
-1.170696	hit and
-1.170696	hit it
-0.8696662	holiday ,
-0.8696662	hopefully i
-1.170696	hundreds and
-1.170696	hundreds of
-2.015794	i 'll
-2.015794	i 've
-2.015794	i am
-1.10123	i came
-2.015794	i can
-2.015794	i just
-2.015794	i knew
-2.015794	i think
-2.015794	i thought
-2.015794	i want
-2.015794	i wanted
-2.015794	i was
-2.015794	i would
-0.236676	ibrox side
-0.8696662	idea. </s>
-1.170696	if anyone
-1.170696	if we
-2.073786	in ,
-2.073786	in any
-1.159222	in charge
-2.073786	in front
-2.073786	in glasgow
-2.073786	in january
-2.073786	in many
-2.073786	in since
-1.159222	in terms	0.08468828
-1.367224	in the
-2.073786	in training.
-0.8696662	incredible wee
-0.8696662	into a
-1.346787	is just
-1.346787	is the
-1.346787	is we
-1.309232	it 's
-2.015794	it all
-2.015794	it as
-2.015794	it brings
-2.015794	it can
-2.015794	it ended
-0.9056828	it was	-0.08354012
-2.015794	it will
-2.015794	it would
-0.236676	it. </s>
-0.8696662	january 2007.
-0.8696662	july 30
-1.568636	just an
-1.568636	just felt
-0.6540719	just have
-1.568636	just that
-1.170696	kaunas defeat
-1.170696	kaunas on
-0.8696662	keeper dani
-0.236676	kind of
-0.8696662	knew it
-1.471726	last season
-1.471726	last two
-1.471726	last year
-1.471726	last year.
-1.471726	league and
-1.471726	league championship
-1.471726	league on
-1.471726	league qualifier
-0.8696662	legendary striker
-0.8696662	lifted the
-0.8696662	lights up
-0.8696662	like you
-0.8696662	liked. "
-0.8696662	lithuanian minnows.
-0.8696662	long season
-0.2561319	look to
-0.8696662	looked out
-1.471726	looking at
-0.3616148	looking forward	0.2029387
-0.8696662	lost the
-0.8696662	luck we
-1.346787	manager ally
-1.346787	manager in
-1.346787	manager walter
-0.8696662	many people
-0.8696662	maybe add
-1.714764	mccoist ,
-1.714764	mccoist added
-1.714764	mccoist also
-1.714764	mccoist said
-0.8001999	mccoist said.	0.1101847
-1.714764	mccoist says
-0.8696662	means rangers
-0.8696662	mello from
-0.8696662	minnows. </s>
-1.346787	more but
-1.346787	more players
-1.346787	more trophies
-0.8696662	much of
-0.8696662	my break
-1.346787	n't deserve
-1.346787	n't get
-1.346787	n't win
-1.170696	nacho is
-1.170696	nacho novo
-0.8696662	narrow 1-0
-0.8696662	need a
-0.8696662	next season
-0.8696662	no idea.
-0.8696662	not easy
-1.170696	novo ,
-1.170696	novo wonder
-0.8696662	obviously just
-2.100115	of a
-2.100115	of luck
-2.100115	of person.
-2.100115	of rumours.
-2.100115	of stairs
-0.2762064	of the
-2.100115	of thing
-2.100115	of what
-2.100115	of winning
-0.2561319	off the
-1.647817	on holiday
-1.647817	on july
-1.647817	on striker
-0.537706	on the	-0.1502025
-0.8696662	one of
-0.8696662	onto a
-1.170696	or into
-1.170696	or we
-1.170696	out and
-1.170696	out as
-0.8696662	over a
-0.8696662	painful elimination
-0.8696662	papac throw-in
-0.8696662	park or
-0.8696662	past falkirk
-0.8696662	people 's
-0.8696662	person. </s>
-1.346787	players had
-1.346787	players in
-1.346787	players will
-0.8696662	players. "
-0.8696662	praise on
-0.8696662	praying he
-0.8696662	premier league
-1.170696	put in
-1.170696	put the
-0.8696662	qualifier against
-0.8696662	quality of
-0.8696662	quid off
-1.346787	rangers assistant
-1.346787	rangers can
-1.346787	rangers on
-0.8696662	rangers. </s>
-0.8696662	rapport with
-0.8696662	reached the
-0.8696662	real reward
-0.8696662	really need
-0.8696662	rest of
-0.8696662	returned to
-0.8696662	reward for
-0.8696662	room ,
-0.8696662	rumours. </s>
-0.4322231	said he
-1.346787	said it
-0.236676	said. </s>
-0.8696662	sasa papac
-0.8696662	says the
-0.8696662	scored 36
-0.8620735	scottish cup
-1.568636	scottish premier
-1.568636	season before
-1.568636	season for
-1.568636	season in
-1.568636	season to
-1.568636	season when
-0.8696662	season. </s>
-0.8696662	seconds after
-0.8696662	secure a
-0.8696662	secured a
-0.8696662	securing his
-1.346787	see it.
-0.4322231	see what	-0.06601231
-0.8696662	send a
-0.8696662	sensational strike
-1.471726	side 's
-1.471726	side lifted
-1.471726	side means
-1.471726	side which
-0.8696662	since he
-0.8696662	sit and
-1.346787	smith returned
-1.346787	smith said
-1.346787	smith said.
-1.170696	so close
-1.170696	so hard
-0.8696662	some beating
-0.8696662	spaniard collected
-0.8696662	speculation to
-0.2561319	squad. </s>
-0.8696662	stairs i
-0.8696662	still see
-0.8696662	strengthen ,
-1.170696	strike past
-1.170696	strike won
-1.170696	striker novo
-1.170696	striker with
-1.170696	success because
-1.170696	success it
-0.8696662	suffered a
-1.170696	summer ,
-1.170696	summer break
-0.8696662	summer. </s>
-0.8696662	surrounded by
-1.170696	take a
-1.170696	take some
-0.8696662	talk about
-1.170696	team and
-1.170696	team deserve
-0.2561319	terms of
-0.8696662	testament to
-1.568636	that 's
-1.568636	that and
-1.568636	that kind
-1.568636	that this
-1.568636	that wee
-2.640518	the 33rd
-2.640518	the bench
-2.640518	the bench.
-2.640518	the best
-2.640518	the boys
-1.530407	the club
-2.640518	the context
-2.640518	the contrary.
-2.640518	the credit
-2.640518	the disappointment
-2.640518	the effort
-1.725954	the fact
-2.640518	the fans
-1.725954	the final
-2.640518	the game
-1.725954	the gers
-1.725954	the glasgow	-0.06601231
-2.640518	the goal
-2.640518	the golf
-2.640518	the great
-2.640518	the hands
-1.530407	the ibrox	0.2029387
-2.640518	the kaunas
-1.725954	the kind	0.1101847
-2.640518	the last
-2.640518	the league
-2.640518	the lithuanian
-2.640518	the manager
-1.725954	the players
-2.640518	the players.
-2.640518	the quality
-2.640518	the rest
-1.071882	the scottish	-0.634789
-2.640518	the season
-2.640518	the season.
-2.640518	the spaniard
-1.725954	the squad.	0.08468828
-2.640518	the success
-2.640518	the summer
-2.640518	the summer.
-1.725954	the team
-2.640518	the uefa
-2.640518	the wee
-0.8696662	them to
-1.568636	they are
-1.568636	they did
-1.568636	they put
-1.568636	they really
-1.568636	they won
-0.8696662	thing i
-0.8696662	think the
-0.8696662	think. </s>
-0.8696662	this year
-0.8696662	thought ,
-0.8696662	throw-in to
-0.8696662	time. </s>
-2.191885	to a
-2.191885	to being
-2.191885	to buy
-1.277321	to collect
-2.191885	to do
-2.191885	to getting
-2.191885	to his
-2.191885	to my
-2.191885	to rangers.
-2.191885	to secure
-2.191885	to send
-2.191885	to strengthen
-2.191885	to that
-1.485323	to the
-2.191885	to wait
-2.191885	to walk
-2.191885	to win
-0.8696662	today (
-0.8696662	training. </s>
-0.8696662	trophies ,
-0.8696662	two years
-0.8696662	uefa cup
-1.170696	up being
-1.170696	up when
-0.8696662	up. </s>
-0.8696662	upstairs today
-0.8696662	us more
-0.8696662	very good.
-0.8696662	victory over
-0.8696662	wait and
-0.8696662	walk up.
-0.8696662	walks in
-0.2561319	walter smith
-0.8696662	want to
-0.8696662	wanted to
-0.8001999	was a
-1.714764	was actually
-1.714764	was looking
-1.714764	was so
-1.714764	was testament
-1.714764	was very
-0.8001999	we can
-1.714764	we deserved
-0.8001999	we did	0.1101847
-1.714764	we lost
-1.714764	we would
-1.346787	wee fellow
-1.346787	wee guy.
-1.346787	wee half
-0.4322231	what happens	0.08468828
-1.346787	what the
-1.568636	when i
-1.568636	when the
-1.568636	when they
-1.568636	when we
-1.568636	when you
-0.8696662	whether it
-0.8696662	which begun
-1.170696	while in
-1.170696	while mccoist
-1.170696	who scored
-1.170696	who the
-0.8696662	why i
-1.346787	will be
-1.346787	will look
-1.346787	will take
-1.170696	win any
-1.170696	win it.
-0.8696662	winning any
-0.7332531	with a
-1.647817	with domestic
-1.647817	with last
-0.7332531	with the
-1.170696	won on
-1.170696	won the
-0.8696662	wonder strike
-0.8696662	wonderful rapport
-0.8696662	works so
-0.8696662	worthy of
-1.568636	would 've
-0.6540719	would be
-1.568636	would hit
-1.568636	would think.
-0.8696662	yard in
-0.8696662	yards out
-1.170696	year it
-1.170696	year was
-0.8696662	year. </s>
-0.8696662	years the
-1.471726	you 're
-1.471726	you are
-1.471726	you have
-1.471726	you obviously

\3-grams:
-0.5147272	, " mccoist
-1.209007	<s> " i
-1.209007	<s> " it
-0.338636	we did n't
-0.4820079	looking forward to
-0.338636	the glasgow giants
-0.338636	what happens ,
-0.4820079	the ibrox side
-0.338636	the kind of
-0.338636	" mccoist said.
-0.338636	mccoist said. </s>
-0.09691001	the scottish cup
-0.338636	and see what
-0.338636	the squad. </s>
-0.338636	in terms of
-0.5147272	on the final
-0.5147272	it was a
-0.338636	see what happens

\end\
