
\data\
ngram 1=342
ngram 2=654
ngram 3=16

\1-grams:
-2.868056	!	-0.04907388
-1.691965	"	-0.2109226
-2.567026	'm	-0.05681339
-1.754113	's	-0.06517082
-1.754113	,	-0.02577146
-2.567026	-	-0.05385296
-2.868056	2-1	-0.0568134
-2.868056	25	-0.05740307
-2.169086	:	-0.226557
-1.362906	</s>
-99	<s>	-0.2048675
-1.637607	a	-0.04927178
-2.567026	about	-0.04787084
-2.868056	absolutely	-0.05740307
-2.868056	ac	-0.05740307
-2.567026	act	-0.1349461
-2.567026	added	-0.1475701
-2.265996	after	-0.02941363
-2.868056	again	-0.05503956
-2.868056	against	-0.05740307
-2.390935	all	-0.04666448
-2.868056	also	-0.05740307
-2.390935	always	-0.05622292
-2.390935	an	-0.05622292
-2.868056	ancelotti	-0.05325844
-2.868056	ancelotti.	-0.03874028
-1.964966	and	-0.01013704
-2.868056	anyone	-0.05503956
-2.868056	are	-0.05740307
-2.868056	arrived	-0.05027359
-2.868056	arrowed	-0.0568134
-1.964966	as	-0.05139241
-2.169086	at	-0.02499169
-2.868056	back	-0.0568134
-2.868056	barcelona.	-0.03874028
-2.390935	be	-0.04666448
-2.169086	been	-0.04545474
-2.567026	before	-0.05385295
-2.868056	behavior	-0.0568134
-2.868056	being	-0.05740307
-2.868056	believe	-0.05027359
-2.868056	between	-0.05622292
-2.868056	bewildering	-0.0508722
-2.567026	big	-0.05681339
-2.868056	bit.	-0.04907388
-2.868056	bridge	-0.05027359
-1.788875	but	-0.1198866
-2.390935	by	-0.05027359
-2.868056	came	-0.05740307
-2.868056	carlo	-0.05740307
-2.868056	champions	-0.0568134
-2.868056	charged	-0.05622292
-1.868056	chelsea	-0.02499168
-2.868056	close	-0.04241558
-2.567026	club	-0.05622292
-2.868056	coach	-0.05385296
-2.868056	comes	-0.0568134
-2.868056	commitments	-0.05385296
-2.868056	completed	-0.04787085
-2.868056	conceding	-0.05622292
-2.868056	confidence.	-0.03874028
-2.868056	couple	-0.05385296
-2.868056	craves	-0.05740307
-2.868056	credentials	-0.05266311
-2.390935	cup	-0.7708194
-2.868056	currently	-0.05740307
-2.868056	delighted	-0.04241558
-2.868056	described	-0.05740307
-2.868056	despite	-0.03750824
-2.868056	didier	-0.05740307
-2.868056	difficult	-0.05740307
-2.567026	discipline	-0.04967415
-2.868056	discuss	-0.05503956
-2.390935	do	-0.7720028
-2.089905	drogba	-0.06928925
-2.868056	drogba.	-0.03874028
-2.868056	due	-0.04241558
-2.868056	dutchman	-0.05740307
-2.868056	effect	-0.05385296
-2.868056	emotional	-0.05740307
-2.868056	end	-0.05385296
-2.868056	ended	-0.05740307
-2.868056	england.	-0.03874028
-2.868056	especially	-0.05325844
-2.868056	even	-0.05444666
-2.567026	everton	-0.04241557
-2.868056	every	-0.05740307
-2.868056	everyone	-0.05740307
-2.868056	experience	-0.05325844
-2.868056	extra	-0.05740307
-2.567026	fa	-0.1487535
-2.868056	falling	-0.05740307
-2.567026	fans	-0.05146999
-2.868056	fantastic	-0.04241558
-2.868056	farewell	-0.04241558
-2.868056	fastest	-0.05622292
-2.390935	feel	-0.02752402
-2.868056	felipe	-0.0568134
-2.868056	fifth	-0.05622292
-2.169086	final	-0.05147
-2.868056	finish	-0.03750824
-2.868056	first	-0.05740307
-2.868056	five	-0.0568134
-2.868056	fly	-0.04241558
-2.567026	follow	-0.04302511
-2.567026	following	-0.0368909
-2.567026	football	-0.0508722
-2.089905	for	-0.04536553
-2.868056	fortunes	-0.05325844
-2.868056	forward.	-0.04907388
-2.868056	four	-0.05740307
-2.868056	frank	-0.05444666
-2.868056	friday	-0.05027359
-2.868056	friendship.	-0.03874028
-2.567026	from	-0.05563164
-2.868056	future	-0.05740307
-2.868056	future.	-0.03874028
-2.868056	genius	-0.05563164
-2.868056	genius.	-0.03874028
-2.868056	gesture.	-0.03874028
-2.868056	gifts	-0.0568134
-2.567026	given	-0.04606003
-2.390935	goal	-0.09386038
-2.868056	goal.	-0.03874028
-2.868056	goals	-0.05027359
-2.868056	going	-0.04241558
-2.868056	good	-0.05740307
-2.868056	good.	-0.03874028
-2.868056	goodbye	-0.0508722
-2.868056	got	-0.04787085
-2.868056	ground	-0.05027359
-2.868056	guided	-0.05206696
-2.868056	guus	-0.05385296
-2.868056	had	-0.05563164
-2.868056	half.	-0.03874028
-2.868056	happened	-0.05563164
-2.868056	hard	-0.0568134
-1.964966	has	-0.0698235
-2.089905	have	-0.05559975
-2.868056	have.	-0.04907388
-2.567026	having	-0.05503955
-1.721928	he	-0.1150686
-2.868056	headed	-0.05206696
-2.868056	here	-0.05325844
-2.868056	here.	-0.03874028
-2.868056	hero	-0.05444666
-2.022958	hiddink	-0.03659202
-2.868056	highly-	-0.05740307
-2.567026	him.	-0.1312708
-2.169086	his	-0.05503956
-2.868056	history.	-0.03874028
-2.868056	hit	-0.03750824
-2.868056	holds	-0.05503956
-2.868056	hotly	-0.05740307
-2.868056	how	-0.05740307
-2.868056	huge	-0.05740307
-2.089905	i	-0.1091218
-2.868056	if	-0.05563164
-2.868056	immense	-0.05740307
-2.868056	impact	-0.05027359
-2.868056	impossible	-0.04241558
-2.868056	impressive	-0.05740307
-1.754113	in	-0.1100961
-2.868056	insisted.	-0.03874028
-2.567026	into	-0.02689232
-2.868056	investment	-0.05266311
-2.022958	is	-0.06137927
-1.868056	it	-0.2229227
-2.868056	job	-0.05740307
-2.868056	job.	-0.03874028
-2.390935	just	-0.05206697
-2.868056	keeps	-0.0568134
-2.868056	knows	-0.05206696
-2.089905	lampard	-0.04606002
-2.567026	league	-0.05266311
-2.567026	left	-0.04119393
-2.868056	left-foot	-0.05740307
-2.868056	level	-0.0568134
-2.868056	london.	-0.03874028
-2.868056	long-term	-0.05740307
-2.868056	louis	-0.05740307
-2.868056	luiz	-0.05740307
-2.567026	made	-0.04180518
-2.868056	maintained	-0.05503956
-2.868056	major	-0.05503956
-2.169086	manager	-0.04606003
-2.567026	managerial	-0.05681339
-2.868056	manger	-0.05325844
-2.868056	many	-0.05622292
-2.868056	mark	-0.05563164
-2.868056	match.	-0.03874028
-2.868056	me	-0.05027359
-2.868056	milan	-0.05027359
-2.868056	months	-0.05027359
-2.567026	more	-0.05681339
-2.868056	moscow	-0.05740307
-2.868056	most	-0.04241558
-2.390935	n't	-0.05325845
-2.868056	name	-0.05740307
-2.868056	national	-0.0568134
-2.868056	nervous	-0.05385296
-2.868056	net	-0.05444666
-2.868056	new	-0.05503956
-2.868056	next	-0.05503956
-2.868056	not.	-0.03874028
-2.022958	of	-0.2132809
-2.265996	on	-0.07447442
-2.868056	one	-0.05385296
-2.868056	only	-0.05740307
-2.868056	opening	-0.05622292
-2.868056	or	-0.05740307
-2.567026	our	-0.05681339
-2.868056	ourselves	-0.05325844
-2.868056	out	-0.05385296
-2.868056	over	-0.0568134
-2.868056	paid	-0.05740307
-2.868056	people	-0.05622292
-2.868056	performances	-0.05027359
-2.868056	played	-0.05385296
-2.868056	player	-0.05444666
-2.868056	pleasure	-0.04241558
-2.868056	poor	-0.05740307
-2.868056	popularity	-0.05385296
-2.868056	premier	-0.0568134
-2.868056	public	-0.05740307
-2.868056	punishment	-0.04967415
-2.868056	qualities	-0.05325844
-2.868056	quite	-0.05740307
-2.868056	reason	-0.05740307
-2.868056	receive	-0.05563164
-2.868056	reception	-0.05622292
-2.868056	remarkable	-0.05740307
-2.868056	replaced	-0.05740307
-2.868056	result	-0.05740307
-2.868056	resume	-0.05503956
-2.868056	revitalised	-0.05740307
-2.868056	rightly	-0.05622292
-2.868056	role	-0.05325844
-2.868056	romantic	-0.0568134
-2.868056	rousing	-0.05740307
-2.868056	russia	-0.0568134
-2.868056	russian	-0.05740307
-2.868056	sacked	-0.05503956
-2.868056	sad	-0.04241558
-2.868056	saha	-0.05563164
-2.567026	said	-0.1475701
-2.868056	salutes	-0.05385296
-2.868056	same	-0.05325844
-2.868056	saturday	-0.05027359
-2.567026	say	-0.05146999
-2.868056	saying	-0.05622292
-2.567026	scolari	-0.04907387
-2.868056	scolari.	-0.03874028
-2.868056	scored	-0.05740307
-2.567026	season	-0.03565359
-2.868056	second	-0.05740307
-2.868056	seconds	-0.05027359
-2.868056	see	-0.05563164
-2.868056	semi-final	-0.05740307
-2.868056	seven	-0.05740307
-2.868056	simple	-0.04967415
-2.868056	since	-0.04967415
-2.868056	six	-0.05740307
-2.390935	so	-0.05027359
-2.868056	some	-0.05740307
-2.868056	something	-0.05266311
-2.868056	sound	-0.05740307
-2.567026	squad	-0.04787084
-2.868056	stamford	-0.05740307
-2.868056	star	-0.05740307
-2.868056	start	-0.0508722
-2.868056	stay.	-0.03874028
-2.868056	strength	-0.05385296
-2.868056	strike	-0.05740307
-2.868056	striker	-0.05740307
-2.868056	success	-0.05385296
-2.567026	such	-0.04726807
-2.868056	supportive	-0.04241558
-2.868056	sure	-0.04967415
-2.868056	take	-0.03750824
-2.567026	team	-0.05503955
-2.868056	tell	-0.05563164
-2.868056	temporary	-0.05503956
-2.868056	than	-0.05740307
-1.913814	that	-0.1309735
-2.868056	that.	-0.03874028
-1.336577	the	-0.04185373
-2.868056	their	-0.05740307
-2.868056	thing	-0.05444666
-2.390935	think	-0.091368
-2.868056	this	-0.05740307
-2.868056	tipped	-0.04241558
-1.453083	to	-0.04566989
-2.868056	too	-0.05740307
-2.868056	tough	-0.0568134
-2.868056	train	-0.05385296
-2.868056	training	-0.05740307
-2.868056	tribute	-0.04241558
-2.868056	trophies	-0.05027359
-2.868056	trophy	-0.05444666
-2.567026	true	-0.05027359
-2.868056	turmoil	-0.05740307
-2.868056	turnaround	-0.05027359
-2.868056	two	-0.0568134
-2.868056	uefa	-0.05444666
-2.868056	under	-0.05385296
-2.868056	understand.	-0.03874028
-2.868056	until	-0.03750824
-2.390935	us	-0.05027359
-2.567026	very	-0.05681339
-2.567026	victory	-0.04967415
-2.868056	waiting	-0.04241558
-2.868056	want	-0.04241558
-2.022958	was	-0.09102229
-2.567026	way	-0.04666447
-2.169086	we	-0.05385297
-2.868056	week	-0.04241558
-2.868056	wembley	-0.05325844
-2.868056	were	-0.05027359
-2.868056	west	-0.05740307
-2.265996	what	-0.0356536
-2.868056	when	-0.04967415
-2.868056	which	-0.05444666
-2.868056	whistle	-0.05503956
-2.169086	who	-0.08615386
-2.868056	why	-0.05503956
-2.089905	will	-0.07957963
-2.868056	win	-0.05740307
-2.868056	winner	-0.05027359
-2.868056	winner.	-0.03874028
-2.022958	with	-0.05011451
-2.868056	without	-0.04787085
-2.868056	won.	-0.04907388
-2.868056	wonderful	-0.05740307
-2.567026	work	-0.1463835
-2.868056	works	-0.05563164
-2.868056	worry	-0.0568134
-2.567026	years	-0.05681339
-2.868056	yes	-0.03750824
-2.868056	yet	-0.04241558
-2.265996	you	-0.09587257
-2.868056	youth	-0.0568134

\2-grams:
-0.90309	! "
-0.7019144	" </s>
-2.079181	" he
-1.408334	" i	0.0008005984
-1.408334	" it
-2.079181	" so
-2.079181	" some
-0.7790325	" the
-1.20412	'm delighted
-1.20412	'm sure
-2.017033	's 2-1
-2.017033	's a
-1.346186	's been
-2.017033	's bewildering
-2.017033	's carlo
-2.017033	's louis
-2.017033	's not.
-2.017033	's sad
-1.346186	's true
-2.017033	's why
-2.017033	's wonderful
-2.017033	, "
-2.017033	, completed
-2.017033	, especially
-2.017033	, even
-2.017033	, every
-2.017033	, having
-2.017033	, how
-2.017033	, is
-2.017033	, just
-2.017033	, left
-2.017033	, the
-1.346186	, who
-1.20412	- before
-1.20412	- his
-0.90309	2-1 victory
-0.90309	25 seconds
-0.4023641	: "	-0.004055206
-1.60206	: cup
-1.030973	<s> "	-0.3189348
-0.7269987	<s> but	0.08710586
-2.40824	<s> chelsea
-1.208544	<s> drogba	0.02326158
-2.40824	<s> football
-2.40824	<s> frank
-2.40824	<s> he
-1.737393	<s> hiddink
-2.40824	<s> i
-1.108091	<s> it	0.06709608
-1.737393	<s> lampard
-2.40824	<s> success
-2.40824	<s> that
-2.40824	<s> the
-2.40824	<s> we
-2.40824	<s> you
-1.462692	a big
-2.133539	a chelsea
-2.133539	a couple
-2.133539	a difficult
-2.133539	a gesture.
-2.133539	a hard
-2.133539	a highly-
-2.133539	a huge
-2.133539	a major
-2.133539	a manager
-2.133539	a pleasure
-2.133539	a remarkable
-2.133539	a rousing
-2.133539	a tough
-2.133539	a trophy
-2.133539	a very
-1.20412	about is
-1.20412	about it
-0.90309	absolutely fantastic
-0.90309	ac milan
-0.5332726	act to	-0.03392014
-0.5332726	added :	0.175107
-1.50515	after being
-1.50515	after just
-1.50515	after that
-1.50515	after the
-0.90309	again at
-0.90309	against barcelona.
-1.380211	all but
-1.380211	all feel
-1.380211	all on
-0.90309	also paid
-1.380211	always going
-1.380211	always good.
-1.380211	always maintained
-1.380211	an emotional
-1.380211	an extra
-1.380211	an opening
-0.90309	ancelotti as
-0.90309	ancelotti. </s>
-1.80618	and a
-1.80618	and feel
-1.80618	and has
-1.80618	and our
-1.80618	and quite
-1.80618	and the
-1.80618	and was
-1.80618	and we
-0.90309	anyone who
-0.90309	are hotly
-0.90309	arrived ,
-0.90309	arrowed into
-1.80618	as a
-1.80618	as ancelotti.
-1.80618	as chelsea
-1.80618	as coach
-1.135333	as he
-1.80618	as managerial
-1.80618	as their
-1.60206	at and
-1.60206	at chelsea
-1.60206	at stamford
-1.60206	at the
-1.60206	at wembley
-0.90309	back from
-0.90309	barcelona. </s>
-1.380211	be a
-1.380211	be nervous
-1.380211	be until
-1.60206	been a
-1.60206	been absolutely
-1.60206	been revitalised
-1.60206	been supportive
-1.60206	been temporary
-1.20412	before lampard
-1.20412	before saying
-0.90309	behavior following
-0.90309	being charged
-0.90309	believe in
-0.90309	between us
-0.90309	bewildering but
-1.20412	big impact
-1.20412	big mark
-0.90309	bit. "
-0.90309	bridge ,
-1.982271	but anyone
-1.982271	but drogba
-0.6821225	but he
-1.311424	but i	0.0008005984
-1.982271	but it
-1.982271	but our
-1.982271	but that
-1.982271	but the
-1.982271	but you
-1.380211	by chelsea
-1.380211	by scolari
-1.380211	by uefa
-0.90309	came back
-0.90309	carlo ancelotti
-0.90309	champions league
-0.90309	charged by
-1.90309	chelsea ,
-1.90309	chelsea came
-1.90309	chelsea fans
-1.90309	chelsea for
-1.90309	chelsea job
-1.90309	chelsea level
-1.90309	chelsea since
-1.90309	chelsea squad
-1.90309	chelsea to
-1.90309	chelsea were
-0.90309	close to
-1.20412	club -
-1.20412	club forward.
-0.90309	coach of
-0.90309	comes into
-0.90309	commitments with
-0.90309	completed a
-0.90309	conceding an
-0.90309	confidence. </s>
-0.90309	couple of
-0.90309	craves here
-0.90309	credentials that
-0.08006246	cup final
-0.90309	currently waiting
-0.90309	delighted to
-0.90309	described guus
-0.90309	despite the
-0.90309	didier drogba.
-0.90309	difficult start
-1.20412	discipline between
-1.20412	discipline in
-0.90309	discuss his
-0.08006246	do n't
-1.681241	drogba ,
-1.681241	drogba also
-1.010394	drogba has
-1.681241	drogba said
-1.681241	drogba who
-0.90309	drogba. </s>
-0.90309	due to
-0.90309	dutchman guided
-0.90309	effect hiddink
-0.90309	emotional farewell
-0.90309	end of
-0.90309	ended two
-0.90309	england. </s>
-0.90309	especially as
-0.90309	even for
-1.20412	everton 's
-1.20412	everton in
-0.90309	every player
-0.90309	everyone craves
-0.90309	experience as
-0.90309	extra bit.
-0.5332726	fa cup	0.7299545
-0.90309	falling out
-1.20412	fans at
-1.20412	fans have
-0.90309	fantastic to
-0.90309	farewell to
-0.90309	fastest goal
-1.380211	feel he
-1.380211	feel the
-1.380211	feel very
-0.90309	felipe scolari
-0.90309	fifth goal
-1.60206	final before
-1.60206	final for
-1.60206	final hero
-1.60206	final history.
-1.60206	final whistle
-0.90309	finish the
-0.90309	first arrived
-0.90309	five years
-0.90309	fly to
-1.20412	follow ,
-1.20412	follow but
-1.20412	following poor
-1.20412	following the
-1.20412	football :
-1.20412	football is
-1.681241	for a
-1.681241	for chelsea
-1.681241	for four
-1.681241	for his
-1.010394	for the
-0.90309	fortunes as
-0.90309	forward. "
-0.90309	four months
-0.90309	frank lampard
-0.90309	friday ,
-0.90309	friendship. </s>
-1.20412	from conceding
-1.20412	from us
-0.90309	future holds
-0.90309	future. </s>
-0.90309	genius after
-0.90309	genius. </s>
-0.90309	gesture. </s>
-0.90309	gifts from
-1.20412	given a
-1.20412	given us
-0.7093639	goal in
-1.380211	goal to
-0.90309	goal. </s>
-0.90309	goals in
-0.90309	going to
-0.90309	good goal.
-0.90309	good. </s>
-0.90309	goodbye but
-0.90309	got a
-0.90309	ground ,
-0.90309	guided chelsea
-0.90309	guus hiddink
-0.90309	had on
-0.90309	half. </s>
-0.90309	happened after
-0.90309	hard act
-1.80618	has always
-1.135333	has been
-1.80618	has given
-1.80618	has had
-1.80618	has left
-1.80618	has more
-1.80618	has yet
-1.681241	have a
-1.681241	have been
-1.681241	have credentials
-1.681241	have discipline
-1.010394	have to
-0.90309	have. "
-1.20412	having just
-1.20412	having made
-2.049218	he 's
-2.049218	he added
-2.049218	he first
-2.049218	he got
-2.049218	he insisted.
-2.049218	he is
-2.049218	he keeps
-2.049218	he replaced
-2.049218	he scored
-2.049218	he was
-0.7490693	he will
-2.049218	he works
-0.90309	headed chelsea
-0.90309	here and
-0.90309	here. </s>
-0.90309	hero lampard
-1.748188	hiddink ,
-1.748188	hiddink </s>
-1.748188	hiddink and
-1.748188	hiddink as
-1.077341	hiddink has
-1.748188	hiddink who
-0.90309	highly- public
-0.5332726	him. </s>
-1.60206	his behavior
-1.60206	his commitments
-1.60206	his fifth
-1.60206	his long-term
-1.60206	his role
-0.90309	history. </s>
-0.90309	hit the
-0.90309	holds at
-0.90309	hotly tipped
-0.90309	how simple
-0.90309	huge job.
-1.010394	i 'm
-1.681241	i do
-1.681241	i have
-1.010394	i think
-0.90309	if you
-0.90309	immense experience
-0.90309	impact in
-0.90309	impossible to
-0.90309	impressive again
-2.017033	in a
-2.017033	in fa
-2.017033	in five
-2.017033	in fortunes
-2.017033	in friendship.
-2.017033	in ourselves
-2.017033	in saturday
-0.7168846	in the
-2.017033	in turmoil
-2.017033	in west
-2.017033	in which
-0.90309	insisted. </s>
-1.20412	into a
-1.20412	into the
-0.90309	investment that
-1.748188	is currently
-1.748188	is due
-1.748188	is managerial
-1.748188	is something
-1.748188	is to
-1.077341	is what
-0.7033941	it 's
-1.90309	it all
-1.90309	it impossible
-0.7033941	it was	0.01660003
-0.90309	job knows
-0.90309	job. </s>
-1.380211	just 25
-1.380211	just as
-1.380211	just sacked
-0.90309	keeps football
-0.90309	knows it
-1.681241	lampard 's
-1.681241	lampard added
-1.681241	lampard described
-1.681241	lampard hit
-1.681241	lampard said
-1.681241	lampard salutes
-1.20412	league and
-1.20412	league semi-final
-1.20412	left such
-1.20412	left to
-0.90309	left-foot strike
-0.90309	level -
-0.90309	london. </s>
-0.90309	long-term future.
-0.90309	louis saha
-0.90309	luiz felipe
-1.20412	made a
-1.20412	made it
-0.90309	maintained his
-0.90309	major final
-1.60206	manager at
-1.60206	manager despite
-1.60206	manager luiz
-1.60206	manager of
-1.60206	manager will
-1.20412	managerial genius
-1.20412	managerial genius.
-0.90309	manger has
-0.90309	many feel
-0.90309	mark on
-0.90309	match. </s>
-0.90309	me ,
-0.90309	milan 's
-0.90309	months ,
-1.20412	more confidence.
-1.20412	more reason
-0.90309	moscow this
-0.90309	most to
-1.380211	n't have
-1.380211	n't want
-1.380211	n't win
-0.90309	name ac
-0.90309	national team
-0.90309	nervous of
-0.90309	net for
-0.90309	new manager
-0.90309	next manager
-0.90309	not. </s>
-1.748188	of gifts
-1.748188	of hiddink
-1.748188	of such
-0.4480393	of the
-1.748188	of what
-1.50515	on chelsea
-1.50515	on friday
-0.8343026	on the
-0.90309	one of
-0.90309	only thing
-0.90309	opening goal
-0.90309	or seven
-1.20412	our qualities
-1.20412	our strength
-0.90309	ourselves and
-0.90309	out with
-0.90309	over everton
-0.90309	paid tribute
-0.90309	people think
-0.90309	performances in
-0.90309	played with
-0.90309	player will
-0.90309	pleasure to
-0.90309	poor performances
-0.90309	popularity of
-0.90309	premier league
-0.90309	public falling
-0.90309	punishment he
-0.90309	qualities and
-0.90309	quite rightly
-0.90309	reason than
-0.90309	receive after
-0.90309	reception by
-0.90309	remarkable turnaround
-0.90309	replaced scolari.
-0.90309	result ended
-0.90309	resume his
-0.90309	revitalised under
-0.90309	rightly so
-0.90309	role as
-0.90309	romantic about
-0.90309	rousing reception
-0.90309	russia made
-0.90309	russian national
-0.90309	sacked manager
-0.90309	sad to
-0.90309	saha after
-0.5332726	said :	0.175107
-0.90309	salutes hiddink
-0.90309	same and
-0.90309	saturday 's
-1.20412	say goodbye
-1.20412	say it
-0.90309	saying an
-1.20412	scolari ,
-1.20412	scolari following
-0.90309	scolari. </s>
-0.90309	scored one
-1.20412	season so
-1.20412	season the
-0.90309	second half.
-0.90309	seconds ,
-0.90309	see what
-0.90309	semi-final against
-0.90309	seven trophies
-0.90309	simple he
-0.90309	since he
-0.90309	six or
-1.380211	so we
-1.380211	so with
-1.380211	so yes
-0.90309	some people
-0.90309	something that
-0.90309	sound too
-1.20412	squad and
-1.20412	squad that
-0.90309	stamford bridge
-0.90309	star striker
-0.90309	start but
-0.90309	stay. </s>
-0.90309	strength is
-0.90309	strike arrowed
-0.90309	striker didier
-0.90309	success is
-1.20412	such a
-1.20412	such immense
-0.90309	supportive to
-0.90309	sure he
-0.90309	take the
-1.20412	team by
-1.20412	team having
-0.90309	tell you
-0.90309	temporary manager
-0.90309	than most
-0.6576366	that 's	-0.001331251
-1.857332	that here.
-1.857332	that is
-1.857332	that many
-1.857332	that match.
-1.857332	that will
-0.90309	that. </s>
-2.434569	the champions
-2.434569	the chelsea
-1.763722	the club
-2.434569	the discipline
-2.434569	the dutchman
-2.434569	the effect
-2.434569	the end
-2.434569	the fa
-2.434569	the fans
-2.434569	the fastest
-2.434569	the final
-2.434569	the future
-2.434569	the goals
-2.434569	the investment
-2.434569	the manger
-2.434569	the net
-2.434569	the new
-2.434569	the only
-2.434569	the popularity
-2.434569	the premier
-2.434569	the result
-2.434569	the russian
-2.434569	the same
-1.763722	the season
-2.434569	the second
-2.434569	the squad
-2.434569	the training
-1.763722	the way
-2.434569	the winner
-2.434569	the winner.
-2.434569	the youth
-0.90309	their next
-0.90309	thing i
-0.7093639	think that	0.06407146
-1.380211	think the
-0.90309	this week
-0.90309	tipped to
-1.647216	to be
-2.318063	to believe
-2.318063	to discuss
-2.318063	to england.
-2.318063	to everton
-2.318063	to finish
-2.318063	to fly
-1.647216	to follow
-2.318063	to him.
-2.318063	to me
-2.318063	to moscow
-2.318063	to name
-2.318063	to resume
-1.647216	to say
-2.318063	to see
-2.318063	to sound
-2.318063	to stay.
-2.318063	to the
-2.318063	to train
-2.318063	to victory
-1.647216	to work	0.1067053
-2.318063	to worry
-0.90309	too romantic
-0.90309	tough act
-0.90309	train with
-0.90309	training ground
-0.90309	tribute to
-0.90309	trophies in
-0.90309	trophy for
-1.20412	true !
-1.20412	true but
-0.90309	turmoil when
-0.90309	turnaround in
-0.90309	two years
-0.90309	uefa for
-0.90309	under hiddink
-0.90309	understand. </s>
-0.90309	until the
-1.380211	us all
-1.380211	us an
-1.380211	us was
-1.20412	very close
-1.20412	very good
-1.20412	victory in
-1.20412	victory over
-0.90309	waiting to
-0.90309	want to
-1.077341	was a
-1.077341	was always
-1.748188	was drogba
-1.748188	was given
-1.748188	was impressive
-1.20412	way he
-1.20412	way we
-1.60206	we all
-1.60206	we have.
-1.60206	we played
-1.60206	we understand.
-1.60206	we won.
-0.90309	week to
-0.90309	wembley as
-0.90309	were in
-0.90309	west london.
-1.50515	what everyone
-1.50515	what happened
-1.50515	what punishment
-1.50515	what the
-0.90309	when he
-0.90309	which lampard
-0.90309	whistle at
-1.60206	who are
-1.60206	who comes
-0.9312126	who has
-1.60206	who headed
-0.90309	why we
-1.681241	will be
-1.010394	will have
-1.681241	will receive
-1.681241	will take
-1.681241	will tell
-0.90309	win six
-0.90309	winner in
-0.90309	winner. </s>
-1.748188	with ,
-1.748188	with him.
-1.748188	with more
-1.748188	with russia
-1.748188	with star
-1.077341	with the
-0.90309	without a
-0.90309	won. "
-0.90309	wonderful left-foot
-0.5332726	work with
-0.90309	works on
-0.90309	worry about
-1.20412	years if
-1.20412	years without
-0.90309	yes the
-0.90309	yet to
-0.8343026	you do	0.7299545
-1.50515	you have
-1.50515	you that.
-0.90309	youth team

\3-grams:
-1.318894	: " i
-0.2218488	<s> " the
-1.318894	that 's true
-1.017864	added : "
-1.017864	said : "
-1.494985	<s> but he
-1.017864	fa cup final
-1.017864	you do n't
-1.318894	<s> drogba has
-1.017864	" i think
-1.017864	but i 'm
-1.193955	<s> it was
-1.017864	think that 's
-1.017864	act to follow
-1.318894	it was a
-1.017864	to work with

\end\
