
\data\
ngram 1=371
ngram 2=706
ngram 3=14

\1-grams:
-2.903632	!	-0.01576407
-1.64836	"	-0.1283969
-1.94939	's	-0.0269723
-1.56121	,	-0.2500792
-2.903632	2007	-0.0236401
-2.903632	2010	-0.03519263
-2.903632	21st	-0.03464942
-2.903632	22	-0.03519263
-2.903632	25	-0.03464942
-2.903632	72	-0.03519263
-2.903632	:	-0.03027912
-2.903632	;	-0.0258644
-1.34733	</s>
-99	<s>	-0.2684468
-1.456475	a	-0.02747068
-2.301573	abramovich	-0.02028214
-2.903632	ac	-0.03519263
-2.602602	admitted	-0.0258644
-2.426511	african	-0.02972974
-2.204663	after	0.0045745
-2.903632	against	-0.03519263
-2.903632	ago	-0.03519263
-2.903632	aiming	-0.03082782
-2.903632	all-time.	-0.01576407
-2.903632	alongside	-0.03519263
-2.903632	always	-0.03082782
-2.903632	ancelotti	-0.0236401
-1.824451	and	0.002793379
-2.301573	another	-0.03192315
-2.903632	appoint	-0.02028214
-2.903632	approach	-0.03519263
-2.602602	are	-0.02530939
-2.903632	as	-0.03464942
-2.426511	at	-0.03410554
-2.903632	attitude	-0.03464942
-2.903632	barcelona	-0.0236401
-2.903632	basis	-0.0236401
-2.602602	be	-0.01291623
-2.903632	beautiful	-0.03410553
-2.426511	because	-0.00542325
-2.426511	been	-0.03301571
-2.602602	before	-0.03464942
-2.903632	behind	-0.0258644
-2.602602	believes	-0.02862886
-2.903632	best	-0.03464942
-2.602602	big	-0.03246976
-2.903632	bitter	-0.03519263
-2.903632	blues	-0.03464942
-2.903632	break-dance	-0.03192314
-2.903632	bridge.	-0.01576407
-2.903632	brief	-0.03519263
-2.903632	build	-0.02028214
-2.125481	but	0.01725112
-2.903632	by	-0.03519263
-2.426511	can	-0.03410554
-2.903632	capable	-0.03519263
-2.903632	caretaker	-0.03464942
-2.903632	carlo	-0.03519263
-2.903632	celebration	-0.03410553
-2.903632	celebrations	-0.02419724
-2.903632	champagne-soaked	-0.03519263
-2.602602	champions	-0.2617572
-2.903632	change	-0.03519263
-2.903632	changes	-0.02419724
-1.903633	chelsea	-0.05812242
-2.602602	club	-0.02308223
-2.903632	club.	-0.01576407
-2.903632	coach	-0.03301571
-2.903632	company.	-0.01576407
-2.903632	constant	-0.03519263
-2.903632	controversial	-0.03464942
-2.903632	cross	-0.02419724
-2.301573	cup	-0.1304529
-2.602602	cup.	-0.005423237
-2.426511	dance	-0.1603778
-2.903632	danced	-0.03192314
-2.903632	dances	-0.03519263
-2.903632	danger	-0.02917964
-2.903632	days	-0.03519263
-2.903632	decisions	-0.03519263
-2.602602	defeat	-0.01971994
-2.903632	delighted	-0.0258644
-2.903632	departing	-0.03519263
-2.602602	did	-0.03301571
-2.903632	didier	-0.03519263
-2.903632	direct	-0.0236401
-2.903632	disappointment	-0.02917964
-2.903632	do	-0.03519263
-2.903632	does	-0.03137583
-2.602602	dressing	-0.2617572
-2.903632	drogba	-0.03519263
-2.903632	drove	-0.02028214
-2.903632	dubious	-0.03519263
-2.903632	during	-0.03519263
-2.903632	dutchman	-0.03464942
-2.903632	eased	-0.03464942
-2.903632	easier	-0.03192314
-2.903632	effect	-0.03301571
-2.602602	emotional	-0.02252366
-2.903632	end	-0.03082782
-2.903632	england.	-0.01576407
-2.903632	enjoy	-0.03410553
-2.903632	equalised	-0.03192314
-2.903632	era	-0.03137583
-2.602602	essien	-0.02308223
-2.426511	even	-0.02752519
-2.903632	everton	-0.0258644
-2.903632	everton.	-0.01576407
-2.903632	every	-0.03519263
-2.602602	everyone	-0.03082782
-2.426511	fa	-0.3888869
-2.903632	falling	-0.03519263
-2.903632	fans	-0.03301571
-2.903632	farewell	-0.03464942
-2.903632	fastest	-0.03519263
-2.903632	father	-0.03464942
-2.903632	february	-0.03137583
-2.903632	feel	-0.03519263
-2.903632	feeling	-0.02917964
-2.903632	felipe	-0.03519263
-2.602602	few	-0.03464942
-2.903632	fifth	-0.03410553
-2.301573	final	-0.1176704
-2.602602	finals.	-0.2434158
-2.903632	first	-0.03519263
-2.903632	five	-0.03464942
-2.903632	florent	-0.03519263
-2.903632	focusing	-0.03301571
-2.903632	football	-0.03519263
-1.94939	for	-0.2571934
-2.903632	foundation	-0.03082782
-2.903632	four	-0.03519263
-2.903632	fourth	-0.0236401
-2.903632	frank	-0.03519263
-2.602602	from	-0.03410553
-2.903632	full-time	-0.03519263
-2.903632	future	-0.0236401
-2.602602	future.	-0.2434158
-2.903632	gathered	-0.01405761
-2.602602	gave	-0.01462718
-2.903632	get	-0.03356096
-2.903632	gives	-0.02028214
-2.903632	goal	-0.02419724
-2.602602	good	-0.02862886
-2.903632	goodbye	-0.03519263
-2.903632	gradually	-0.03519263
-2.903632	grown	-0.03519263
-2.903632	guus	-0.03027912
-2.125481	had	-0.07867618
-2.903632	hand	-0.03464942
-2.903632	happen.	-0.01576407
-2.903632	has	-0.03246977
-1.94939	have	-0.09980058
-2.903632	have.	-0.01576407
-2.000543	he	-0.06980152
-2.903632	header	-0.03464942
-2.903632	hearts	-0.02917964
-2.903632	henning	-0.03519263
-1.903633	hiddink	-0.06116194
-2.903632	high	-0.03519263
-1.94939	his	-0.03082782
-2.903632	history	-0.0236401
-2.903632	howard	-0.03301571
-1.94939	i	-0.02475368
-2.602602	if	-0.02697229
-1.581413	in	-0.385391
-2.903632	inhibitions	-0.02917964
-2.903632	into	-0.01405761
-2.058534	is	-0.1865599
-2.204663	it	-0.02308223
-2.903632	it.	-0.0258644
-2.903632	john	-0.03519263
-2.903632	joined	-0.03027912
-2.903632	jose	-0.03410553
-2.903632	joy.	-0.01576407
-2.903632	just	-0.03464942
-2.903632	keep	-0.03519263
-2.903632	kind	-0.02917964
-2.903632	know	-0.03464942
-2.903632	lampard	-0.03464942
-2.903632	last	-0.03519263
-2.903632	leading	-0.03464942
-2.426511	league	-0.03192315
-2.903632	least	-0.03137583
-2.602602	leaving	-0.03027912
-2.903632	leg	-0.03519263
-2.903632	likely	-0.03519263
-2.903632	long-	-0.03519263
-2.903632	long-term	-0.03519263
-2.903632	lose	-0.03082782
-2.903632	louis	-0.03519263
-2.903632	loved	-0.0258644
-2.903632	luiz	-0.03519263
-2.903632	malouda	-0.03082782
-2.426511	man	-0.0236401
-2.602602	manager	-0.03410553
-2.903632	managers	-0.02917964
-2.903632	managing	-0.03356096
-2.602602	many	-0.03464942
-2.903632	matches.	-0.01576407
-2.903632	message	-0.03082782
-2.903632	michael	-0.03464942
-2.903632	middle	-0.02917964
-2.903632	might	-0.03464942
-2.903632	mikel	-0.02917964
-2.903632	milan	-0.03082782
-2.602602	minute	-0.02862886
-2.903632	minutes.	-0.01576407
-2.903632	moment	-0.02917964
-2.903632	months.	-0.01576407
-2.426511	more	-0.03301571
-2.602602	most	-0.03464942
-2.426511	mourinho	-0.02586441
-2.903632	moves	-0.0236401
-2.903632	multi-cultural	-0.03464942
-2.602602	must	-0.03410553
-2.903632	n't	-0.03519263
-2.602602	need	-0.015196
-2.903632	negative	-0.03519263
-2.903632	new	-0.03410553
-2.903632	next	-0.03519263
-2.903632	nice	-0.03410553
-2.426511	not	-0.01462718
-2.426511	now	-0.01633142
-2.903632	obi	-0.03519263
-2.903632	occasions	-0.03519263
-1.824451	of	-0.04748105
-2.903632	of.	-0.01576407
-2.204663	on	-0.07398453
-2.602602	one	-0.02807737
-2.602602	only	-0.03464942
-2.903632	open	-0.03519263
-2.903632	opener	-0.0236401
-2.903632	opportunity	-0.03410553
-2.903632	or	-0.03410553
-2.903632	other	-0.03519263
-2.602602	out	-0.03246976
-2.602602	over	-0.01971994
-2.903632	overpowered	-0.03519263
-2.903632	ovrebo	-0.02419724
-2.903632	participating	-0.0236401
-2.602602	party	-0.02917964
-2.903632	party.	-0.01576407
-2.602602	past	-0.03410553
-2.426511	perfect	-0.03246977
-2.903632	performance.	-0.01576407
-2.903632	period	-0.03410553
-2.903632	place	-0.02419724
-2.903632	play	-0.03410553
-2.125481	players	-0.5051987
-2.903632	playing	-0.02419724
-2.903632	power	-0.03519263
-2.903632	premier	-0.03410553
-2.903632	produced	-0.02028214
-2.903632	range	-0.03519263
-2.903632	rather	-0.03464942
-2.903632	recognise	-0.03137583
-2.903632	recreate	-0.03464942
-2.903632	referee	-0.03519263
-2.903632	refused	-0.0258644
-2.903632	regret	-0.03082782
-2.903632	reign	-0.0236401
-2.903632	reign.	-0.01576407
-2.903632	replaced	-0.03519263
-2.903632	resuming	-0.03082782
-2.903632	riotous	-0.03410553
-2.903632	role	-0.03519263
-2.602602	roman	-0.03301571
-2.426511	room	-0.1714152
-2.903632	rule	-0.03464942
-2.903632	run	-0.02917964
-2.602602	russia	-0.02530939
-2.903632	sadness	-0.0258644
-2.903632	saha	-0.03082782
-2.602602	said.	-0.2434158
-2.903632	satisfaction.	-0.01576407
-2.903632	saturday	-0.0236401
-2.903632	savour	-0.03519263
-2.903632	saw	-0.03410553
-2.903632	say	-0.03519263
-2.903632	scolari	-0.02419724
-2.602602	second	-0.03464942
-2.903632	sedate	-0.03519263
-2.602602	see	-0.01291623
-2.903632	semi-final	-0.03464942
-2.903632	september	-0.03519263
-2.903632	set	-0.0258644
-2.903632	shapes	-0.03519263
-2.903632	shot	-0.03464942
-2.903632	shown	-0.03192314
-2.903632	side	-0.03082782
-2.903632	signal	-0.02028214
-2.903632	silverware	-0.03519263
-2.903632	since	-0.03410553
-2.903632	so	-0.03137583
-2.602602	some	-0.03410553
-2.903632	somewhere	-0.02028214
-2.903632	speak	-0.0258644
-2.903632	speech	-0.0258644
-2.903632	spells	-0.02917964
-2.602602	squad	-0.01746386
-2.903632	squad.	-0.01576407
-2.903632	stability	-0.03192314
-2.602602	staff	-0.01177184
-2.903632	stagnating	-0.0236401
-2.903632	stamford	-0.03519263
-2.903632	stars	-0.02419724
-2.903632	stick	-0.03192314
-2.903632	strategy	-0.03519263
-2.903632	struggle	-0.02419724
-2.903632	successful	-0.03519263
-2.903632	such	-0.03519263
-2.903632	sunset	-0.03192314
-2.903632	superb.	-0.01576407
-2.903632	taken	-0.03027912
-2.903632	team	-0.02917964
-2.903632	technical	-0.03464942
-2.903632	thank	-0.03519263
-2.000543	that	-0.01859336
-1.312568	the	-0.09434991
-2.602602	their	-0.03464942
-2.903632	them	-0.02419724
-2.903632	them.	-0.01576407
-2.903632	themselves.	-0.01576407
-2.903632	then	-0.03082782
-2.058534	they	-0.1416925
-2.903632	thing	-0.0258644
-2.903632	think	-0.03519263
-2.903632	thinking	-0.03519263
-2.301573	this	-0.02917965
-2.903632	three	-0.03519263
-2.903632	through	-0.03519263
-2.903632	throw	-0.02028214
-2.903632	tim	-0.03519263
-2.903632	time	-0.02419724
-1.64836	to	0.01359133
-2.903632	together	-0.02419724
-2.903632	tom	-0.03519263
-2.903632	too	-0.03464942
-2.903632	took	-0.03464942
-2.903632	trophy	-0.03082782
-2.602602	two	-0.03356096
-2.903632	up	-0.03464942
-2.903632	us.	-0.01576407
-2.903632	used	-0.0258644
-2.903632	utd	-0.02419724
-2.602602	victory	-0.03410553
-2.903632	visit	-0.03082782
-2.602602	wants	-0.02862886
-2.000543	was	-0.04510926
-2.426511	way	-0.01746386
-2.602602	way.	-0.2434158
-2.125481	we	-0.2595364
-2.903632	week.	-0.01576407
-2.903632	wembley	-0.03301571
-2.602602	were	-0.03246976
-2.602602	what	-0.02697229
-2.602602	when	-0.0258644
-2.903632	which	-0.03519263
-2.903632	while	-0.03027912
-2.903632	who	-0.03246977
-2.903632	wild	-0.03464942
-2.602602	will	-0.03464942
-2.058534	with	-0.1317993
-2.903632	wo	-0.03519263
-2.903632	words	-0.03246977
-2.903632	worked	-0.03519263
-2.903632	world	-0.03356096
-2.426511	would	-0.3861538
-2.602602	years	-0.02862886
-2.602602	you	-0.03301571

\2-grams:
-1.102434	! </s>
-1.296491	" </s>
-1.296491	" hiddink	-0.1817112
-1.004647	" i
-1.296491	" it
-2.357706	" now
-2.357706	" roman
-2.357706	" that
-2.357706	" the
-2.357706	" they
-2.357706	" this
-1.004647	" we	0.0175332
-2.056676	's 25
-2.056676	's carlo
-2.056676	's cross
-2.056676	's players
-2.056676	's reign.
-2.056676	's riotous
-2.056676	's stars
-2.056676	's victory
-2.056676	's what
-1.383641	, "	-0.2006047
-0.7403627	, but
-1.383641	, chelsea
-2.444856	, hiddink
-1.383641	, in	0.09909803
-2.444856	, john
-2.444856	, most
-2.444856	, open
-2.444856	, or
-0.7403627	, the
-2.444856	, then
-2.444856	, which
-2.444856	, while
-1.102434	2007 ,
-1.102434	2010 world
-1.102434	21st minute
-1.102434	22 matches.
-1.102434	25 second
-1.102434	72 minutes.
-1.102434	: hiddink
-1.102434	; to
-0.4101745	<s> "	-0.1649961
-2.658736	<s> a
-2.658736	<s> after
-2.658736	<s> and
-2.658736	<s> at
-2.658736	<s> but
-2.658736	<s> didier
-2.658736	<s> football
-2.658736	<s> guus
-1.305677	<s> he
-1.305677	<s> hiddink
-2.658736	<s> i
-2.658736	<s> on
-2.658736	<s> since
-1.597521	<s> they	-0.1626793
-2.658736	<s> this
-2.658736	<s> when
-2.658736	<s> you
-2.549592	a big
-2.549592	a bitter
-2.549592	a club
-2.549592	a cup.
-2.549592	a feeling
-1.488376	a few
-2.549592	a first
-2.549592	a five
-2.549592	a fourth
-2.549592	a full-time
-2.549592	a header
-2.549592	a joy.
-2.549592	a long-
-2.549592	a long-term
-2.549592	a man
-2.549592	a message
-2.549592	a more
-2.549592	a multi-cultural
-2.549592	a negative
-2.549592	a nice
-2.549592	a perfect
-2.549592	a place
-2.549592	a rather
-2.549592	a run
-2.549592	a squad
-2.549592	a team
-2.549592	a wild
-1.704494	abramovich is
-1.704494	abramovich lose
-1.704494	abramovich must
-1.704494	abramovich to
-1.102434	ac milan
-1.403464	admitted chelsea
-1.403464	admitted that
-1.579555	african dance
-1.579555	african players
-1.579555	african way.
-1.801404	after 72
-1.801404	after a
-1.801404	after falling
-1.801404	after one
-1.801404	after the
-1.102434	against barcelona
-1.102434	ago playing
-1.102434	aiming for
-1.102434	all-time. </s>
-1.102434	alongside michael
-1.102434	always have
-1.102434	ancelotti ,
-2.181615	and abramovich
-2.181615	and company.
-2.181615	and fans
-2.181615	and frank
-2.181615	and he
-2.181615	and keep
-2.181615	and technical
-2.181615	and the
-2.181615	and they
-2.181615	and throw
-2.181615	and were
-2.181615	and you
-1.704494	another big
-1.704494	another opportunity
-1.704494	another premier
-1.704494	another room
-1.102434	appoint a
-1.102434	approach produced
-1.403464	are capable
-1.403464	are to
-1.102434	as russia
-1.579555	at least
-1.579555	at stamford
-1.579555	at wembley
-1.102434	attitude from
-1.102434	barcelona ,
-1.102434	basis ,
-1.403464	be leaving
-1.403464	be the
-1.102434	beautiful african
-1.579555	because i
-1.579555	because the
-1.579555	because we
-1.579555	been even
-1.579555	been somewhere
-1.579555	been through
-1.403464	before focusing
-1.403464	before resuming
-1.102434	behind to
-1.403464	believes it
-1.403464	believes that
-1.102434	best way.
-1.403464	big final
-1.403464	big need
-1.102434	bitter power
-1.102434	blues manager
-1.102434	break-dance is
-1.102434	bridge. </s>
-1.102434	brief reign
-1.102434	build a
-1.880585	but ,
-1.880585	but for
-1.880585	but he
-1.880585	but his
-1.880585	but it
-1.880585	but the
-1.102434	by referee
-1.579555	can build
-1.579555	can do
-1.579555	can say
-1.102434	capable of.
-1.102434	caretaker manager
-1.102434	carlo ancelotti
-1.102434	celebration at
-1.102434	celebrations in
-1.102434	champagne-soaked celebrations
-0.3422483	champions league
-1.102434	change has
-1.102434	changes in
-0.7493747	chelsea 's
-2.102434	chelsea ,
-2.102434	chelsea </s>
-2.102434	chelsea are
-2.102434	chelsea gradually
-2.102434	chelsea have
-2.102434	chelsea their
-2.102434	chelsea to
-1.403464	club ,
-1.403464	club who
-1.102434	club. </s>
-1.102434	coach on
-1.102434	company. </s>
-1.102434	constant change
-1.102434	controversial defeat
-1.102434	cross in
-0.6432782	cup final
-1.704494	cup finals.
-1.704494	cup when
-1.403464	cup. "
-1.403464	cup. </s>
-1.579555	dance ,
-0.5183395	dance party
-1.102434	danced with
-1.102434	dances into
-1.102434	danger of
-1.102434	days ago
-1.102434	decisions by
-1.403464	defeat in
-1.403464	defeat was
-1.102434	delighted to
-1.102434	departing blues
-1.403464	did not
-1.403464	did some
-1.102434	didier drogba
-1.102434	direct ,
-1.102434	disappointment of
-1.102434	do it.
-1.102434	does that
-0.3422483	dressing room
-1.102434	drogba equalised
-1.102434	drove a
-1.102434	dubious decisions
-1.102434	during jose
-1.102434	dutchman believes
-1.102434	eased out
-1.102434	easier with
-1.102434	effect on
-1.403464	emotional in
-1.403464	emotional way
-1.102434	end his
-1.102434	england. </s>
-1.102434	enjoy more
-1.102434	equalised with
-1.102434	era that
-1.403464	essien ,
-1.403464	essien break-dance
-1.579555	even chelsea
-1.579555	even more
-1.579555	even roman
-1.102434	everton to
-1.102434	everton. </s>
-1.102434	every moment
-1.403464	everyone participating
-1.403464	everyone was
-0.226496	fa cup	-0.02336714
-1.102434	falling behind
-1.102434	fans after
-1.102434	farewell before
-1.102434	fastest goal
-1.102434	father before
-1.102434	february he
-1.102434	feel sadness
-1.102434	feeling of
-1.102434	felipe scolari
-1.403464	few days
-1.403464	few shapes
-1.102434	fifth fa
-0.6432782	final ,
-1.704494	final history
-1.704494	final was
-0.3422483	finals. </s>
-1.102434	first trophy
-1.102434	five minute
-1.102434	florent malouda
-1.102434	focusing on
-1.102434	football :
-2.056676	for chelsea
-2.056676	for now
-2.056676	for some
-0.3521825	for the
-2.056676	for this
-2.056676	for two
-1.102434	foundation for
-1.102434	four months.
-1.102434	fourth ,
-1.102434	frank lampard
-1.403464	from everyone
-1.403464	from florent
-1.102434	full-time basis
-1.102434	future ,
-0.3422483	future. </s>
-1.102434	gathered the
-1.403464	gave a
-1.403464	gave chelsea
-1.102434	get another
-1.102434	gives a
-1.102434	goal in
-1.403464	good moves
-1.403464	good of
-1.102434	goodbye easier
-1.102434	gradually overpowered
-1.102434	grown used
-1.102434	guus hiddink
-0.8193695	had a
-1.880585	had been
-1.880585	had grown
-1.880585	had this
-1.880585	had too
-1.102434	hand leaving
-1.102434	happen. </s>
-1.102434	has had
-0.9954607	have a
-0.9954607	have been
-2.056676	have had
-2.056676	have loved
-2.056676	have shown
-2.056676	have taken
-2.056676	have worked
-1.102434	have. </s>
-2.005524	he admitted
-2.005524	he drove
-2.005524	he is
-2.005524	he took
-2.005524	he wants
-2.005524	he was
-0.9443082	he will
-1.102434	header from
-1.102434	hearts of
-1.102434	henning ovrebo
-2.102434	hiddink admitted
-2.102434	hiddink believes
-2.102434	hiddink dances
-2.102434	hiddink joined
-2.102434	hiddink refused
-2.102434	hiddink replaced
-1.041218	hiddink said.	0.04026556
-2.102434	hiddink was
-2.102434	hiddink would
-1.102434	high performance.
-2.056676	his 22
-2.056676	his brief
-2.056676	his direct
-2.056676	his father
-2.056676	his inhibitions
-2.056676	his new
-2.056676	his role
-2.056676	his side
-2.056676	his time
-1.102434	history ,
-1.102434	howard after
-2.056676	i did
-2.056676	i feel
-2.056676	i gathered
-2.056676	i gave
-2.056676	i have.
-2.056676	i think
-2.056676	i was
-2.056676	i wo
-2.056676	i would
-1.403464	if chelsea
-1.403464	if we
-1.363438	in a
-1.363438	in another
-2.424653	in danger
-2.424653	in england.
-2.424653	in fa
-2.424653	in february
-2.424653	in his
-2.424653	in september
-0.2808266	in the	-0.0226946
-1.102434	inhibitions and
-1.102434	into the
-0.8863163	is a
-1.947532	is not
-1.947532	is set
-0.5944728	is the
-1.801404	it did
-1.801404	it is
-1.801404	it not
-1.801404	it was
-1.801404	it would
-1.102434	it. "
-1.102434	john obi
-1.102434	joined chelsea
-1.102434	jose mourinho
-1.102434	joy. </s>
-1.102434	just one
-1.102434	keep up
-1.102434	kind of
-1.102434	know what
-1.102434	lampard gave
-1.102434	last four
-1.102434	leading russia
-1.579555	league club
-1.579555	league final
-1.579555	league semi-final
-1.102434	least that
-1.403464	leaving because
-1.403464	leaving with
-1.102434	leg against
-1.102434	likely ac
-1.102434	long- range
-1.102434	long-term strategy
-1.102434	lose his
-1.102434	louis saha
-1.102434	loved to
-1.102434	luiz felipe
-1.102434	malouda 's
-1.579555	man for
-1.579555	man of
-1.579555	man utd
-1.403464	manager spells
-1.403464	manager wants
-1.102434	managers and
-1.102434	managing another
-1.403464	many changes
-1.403464	many words
-1.102434	matches. </s>
-1.102434	message for
-1.102434	michael essien
-1.102434	middle of
-1.102434	might be
-1.102434	mikel and
-1.102434	milan 's
-1.403464	minute and
-1.403464	minute speech
-1.102434	minutes. </s>
-1.102434	moment of
-1.102434	months. </s>
-1.579555	more champagne-soaked
-1.579555	more perfect
-1.579555	more sedate
-1.403464	most likely
-1.403464	most successful
-1.579555	mourinho 's
-1.579555	mourinho era
-1.579555	mourinho was
-1.102434	moves ,
-1.102434	multi-cultural squad
-1.403464	must recreate
-1.403464	must see
-1.102434	n't get
-1.403464	need a
-1.403464	need for
-1.102434	negative effect
-1.102434	new man
-1.102434	next week.
-1.102434	nice dance
-1.579555	not a
-1.579555	not for
-1.579555	not happen.
-1.579555	now he
-1.579555	now i
-1.579555	now to
-1.102434	obi mikel
-1.102434	occasions during
-2.181615	of a
-2.181615	of all-time.
-2.181615	of chelsea
-2.181615	of his
-2.181615	of just
-2.181615	of many
-2.181615	of satisfaction.
-2.181615	of stagnating
-0.8285559	of the
-2.181615	of thing
-1.102434	of. </s>
-1.801404	on a
-1.801404	on leading
-1.801404	on saturday
-0.7401882	on the
-1.403464	one defeat
-1.403464	one of
-1.403464	only disappointment
-1.403464	only regret
-1.102434	open approach
-1.102434	opener ,
-1.102434	opportunity now
-1.102434	or even
-1.102434	other hand
-1.403464	out after
-1.403464	out managing
-1.403464	over a
-1.403464	over everton
-1.102434	overpowered everton.
-1.102434	ovrebo in
-1.102434	participating ,
-1.403464	party after
-1.403464	party with
-1.102434	party. </s>
-1.403464	past tim
-1.403464	past years
-1.579555	perfect farewell
-1.579555	perfect if
-1.579555	perfect way
-1.102434	performance. </s>
-1.102434	period at
-1.102434	place in
-1.102434	play man
-1.880585	players ;
-0.1760913	players and
-1.880585	players know
-1.102434	playing in
-1.102434	power struggle
-1.102434	premier league
-1.102434	produced a
-1.102434	range shot
-1.102434	rather emotional
-1.102434	recognise that
-1.102434	recreate if
-1.102434	referee tom
-1.102434	refused to
-1.102434	regret i
-1.102434	reign ,
-1.102434	reign. </s>
-1.102434	replaced luiz
-1.102434	resuming his
-1.102434	riotous dance
-1.102434	role as
-1.403464	roman abramovich
-1.403464	roman danced
-0.5183395	room because
-1.579555	room celebration
-1.102434	rule out
-1.102434	run of
-1.403464	russia coach
-1.403464	russia to
-1.102434	sadness to
-1.102434	saha 's
-0.3422483	said. </s>
-1.102434	satisfaction. </s>
-1.102434	saturday ,
-1.102434	savour every
-1.102434	saw even
-1.102434	say goodbye
-1.102434	scolari in
-1.403464	second leg
-1.403464	second opener
-1.102434	sedate period
-1.403464	see essien
-1.403464	see the
-1.102434	semi-final second
-1.102434	september 2007
-1.102434	set to
-1.102434	shapes alongside
-1.102434	shot past
-1.102434	shown they
-1.102434	side 's
-1.102434	signal a
-1.102434	silverware gives
-1.102434	since mourinho
-1.102434	so that
-1.403464	some dubious
-1.403464	some good
-1.102434	somewhere a
-1.102434	speak to
-1.102434	speech to
-1.102434	spells of
-1.403464	squad and
-1.403464	squad in
-1.102434	squad. </s>
-1.102434	stability is
-1.403464	staff ,
-1.403464	staff in
-1.102434	stagnating ,
-1.102434	stamford bridge.
-1.102434	stars in
-1.102434	stick with
-1.102434	strategy so
-1.102434	struggle in
-1.102434	successful caretaker
-1.102434	such occasions
-1.102434	sunset with
-1.102434	superb. </s>
-1.102434	taken chelsea
-1.102434	team and
-1.102434	technical staff
-1.102434	thank them
-2.005524	that 's
-2.005524	that abramovich
-2.005524	that constant
-2.005524	that controversial
-2.005524	that is
-2.005524	that kind
-2.005524	that themselves.
-2.005524	that they
-2.693498	the 2010
-2.693498	the 21st
-1.632283	the african
-2.693498	the attitude
-2.693498	the best
-1.632283	the champions	0.04026556
-2.693498	the club.
-2.693498	the departing
-2.693498	the dressing
-2.693498	the dutchman
-2.693498	the fa
-2.693498	the fastest
-2.693498	the foundation
-2.693498	the future
-1.632283	the future.	0.04026556
-2.693498	the good
-2.693498	the hearts
-2.693498	the last
-2.693498	the middle
-2.693498	the most
-2.693498	the mourinho
-2.693498	the next
-1.632283	the only
-2.693498	the other
-2.693498	the party.
-2.693498	the past
-2.693498	the perfect
-0.9890046	the players	-0.1249388
-2.693498	the squad.
-2.693498	the staff
-2.693498	the sunset
-2.693498	the way
-1.403464	their fifth
-1.403464	their high
-1.102434	them in
-1.102434	them. </s>
-1.102434	themselves. </s>
-1.102434	then i
-1.947532	they are
-0.8863163	they can
-0.8863163	they have
-1.947532	they need
-1.947532	they recognise
-1.102434	thing to
-1.102434	think stability
-1.102434	thinking !
-1.704494	this beautiful
-1.704494	this cup.
-1.704494	this is
-1.704494	this victory
-1.102434	three managers
-1.102434	through three
-1.102434	throw a
-1.102434	tim howard
-1.102434	time in
-2.357706	to a
-2.357706	to appoint
-2.357706	to be
-2.357706	to end
-2.357706	to enjoy
-2.357706	to louis
-2.357706	to play
-2.357706	to rule
-2.357706	to savour
-2.357706	to see
-2.357706	to signal
-2.357706	to speak
-2.357706	to stick
-2.357706	to such
-2.357706	to thank
-2.357706	to the
-2.357706	to them.
-2.357706	to two
-1.102434	together in
-1.102434	tom henning
-1.102434	too many
-1.102434	took over
-1.102434	trophy for
-1.403464	two finals.
-1.403464	two years
-1.102434	up their
-1.102434	us. </s>
-1.102434	used to
-1.102434	utd in
-1.403464	victory might
-1.403464	victory over
-1.102434	visit his
-1.403464	wants abramovich
-1.403464	wants his
-2.005524	was delighted
-2.005524	was eased
-2.005524	was emotional
-2.005524	was in
-2.005524	was superb.
-0.9443082	was the
-2.005524	was thinking
-1.579555	way for
-1.579555	way to
-1.579555	way we
-0.3422483	way. </s>
-0.527526	we had
-0.8193695	we have
-1.880585	we were
-1.102434	week. </s>
-1.102434	wembley on
-1.403464	were aiming
-1.403464	were it
-1.403464	what i
-1.403464	what they
-1.403464	when he
-1.403464	when hiddink
-1.102434	which saw
-1.102434	while hiddink
-1.102434	who had
-1.102434	wild dressing
-1.403464	will always
-1.403464	will visit
-0.5944728	with a
-1.947532	with everyone
-1.947532	with his
-1.947532	with silverware
-1.947532	with us.
-1.102434	wo n't
-1.102434	words but
-1.102434	worked together
-1.102434	world cup
-0.226496	would have
-1.403464	years and
-1.403464	years does
-1.403464	you can
-1.403464	you must

\3-grams:
-0.3960382	, " hiddink
-0.6690068	<s> " i
-1.241136	<s> " it
-0.6690068	<s> " we
-0.3960382	the champions league
-0.5721294	fa cup final
-0.3960382	the future. </s>
-0.3960382	" hiddink said.
-0.3960382	, in the
-0.1249387	the players and
-0.3960382	hiddink said. </s>
-1.136401	in the champions
-0.3960382	<s> they have
-0.5721294	" we had

\end\
